tree
version=v4
num_class=1
num_tree_per_iteration=1
label_index=0
max_feature_idx=31
objective=regression
feature_names=day_of_week day_of_month month year quarter is_weekend is_month_start is_month_end week_of_year lag_28 lag_35 lag_42 lag_56 roll_mean_7 roll_mean_14 roll_mean_28 roll_mean_56 roll_std_7 roll_std_14 roll_std_28 roll_std_56 sell_price price_change_pct price_vs_dept price_vs_store has_event event_type_encoded snap days_to_christmas item_id_enc dept_id_enc cat_id_enc
feature_infos=[0:6] [1:31] [1:12] [2011:2016] [1:4] [0:1] [0:1] [0:1] [1:53] [0:206] [0:282] [0:243] [0:273] [0:193.71427917480469] [0:204.85714721679688] [0:216.71427917480469] [0:180.03572082519531] [0:112.16017150878906] [0:112.9163818359375] [0:108.91139984130859] [0:113.27215576171875] [0.10000000149011612:30.979999542236328] [-65.277778625488281:24600.001953125] [0.014944569207727909:6.901853084564209] [0.022412179037928581:6.9664649963378906] [0:1] -1:0:3:4:2 [0:1] [-30:30] [0:3048] -1:2:6:5:3:1:0:4 -1:0:2:1
tree_sizes=2891 2932 2920 2937 2896 2904 2918 2925 2926 2899 2923 2938 2924 2899 2915 2876 2882 2882 2832 2910 2913 2885 2864 2917 2882 2886 2843 2858 2881 2895 2888 2872 2895 2895 2904 2831 2893 2869 2862 2896 2901 2909 2858 2879 2900 2925 2947 2810 2936 2862 2878 2878 2886 2885 2849 2933 2977 2840 2881 2945 2956 2897 2909 2905 2879 2861 2863 2800 2936 2921 2875 2862 2907 3006 2956 2860 2953 2906 2864 3028 2921 2998 2832 2892 2863 2900 2814 2964 2945 2871 2962 2901 2841 2871 2865 2875 2954 2854 2886 2904 2959 2991 2797 2867 2893 2885 3000 2827 2873 2940 2819 2740 2788 2757 2889 2908 2762 2890 2816 2725 2885 2875 2959 2945 2835 2967 2724 2825 3017 2866 2857 2973 2780 2944 2711 2839 2924 2852 2766 2785 2880 2863 2766 2951 2784 3037 2782 2823 2806 2767 2773 2880 2908 2894 2746 2837 2727 2841 2780 2763 2728 2920 2797 2846 2812 2841 2811 2824 2712 2915 2735 2975 3010 2773 2809 2824 2737 2749 2748 2816 2786 2783 2901 2743 2852 2863 2773 2756 2750 2833 2858 2828 2771 2889 2926 2864 2719 2786 2921 2785 2779 2780 2873 2923 2861 2939 2738 2743 2770 2761 2932 2940 2840 2741 2907 2823 2847 2782 2800 2751 2878 2781 2792 2950 2902 2864 2716 2751 2949 2807 2747 2845 2907

Tree=0
num_leaves=31
num_cat=0
split_feature=15 14 15 15 9 15 15 9 0 13 0 10 23 15 0 15 15 14 16 11 9 0 15 15 16 11 0 16 16 8
split_gain=2.1687e+07 6.67875e+06 5.34351e+06 1.53759e+06 1.44351e+06 923644 777246 478758 330872 213165 201863 189264 169325 144902 131939 131293 116924 112815 104394 95427 89165.2 85106.2 77531.7 71161 61726.9 58342.6 56107.8 50643.3 46766.4 44865.7
threshold=8.9107146263122576 32.964284896850593 2.553571462631226 16.125000000000004 59.500000000000007 0.8392857313156129 5.1250000000000009 94.500000000000014 4.5000000000000009 72.357143402099624 4.5000000000000009 52.500000000000007 0.48177790641784674 1.6250000000000002 4.5000000000000009 20.803571701049808 3.6964285373687749 23.178570747375492 0.32200460135936743 49.500000000000007 32.500000000000007 3.5000000000000004 11.589285373687746 11.589285373687746 6.8482143878936776 74.500000000000014 4.5000000000000009 5.340097427368165 6.8482143878936776 44.500000000000007
decision_type=2 2 2 2 2 2 2 2 2 2 2 2 2 2 2 2 2 2 2 2 2 2 2 2 2 2 2 2 2 2
left_child=2 3 5 10 11 18 16 19 17 -9 22 20 21 -7 24 -10 -4 -5 -1 -6 -3 -11 -2 -12 -8 -13 -18 -20 -16 -14
right_child=1 4 6 8 7 13 14 9 15 12 23 25 29 -15 28 -17 26 -19 27 -21 -22 -23 -24 -25 -26 -27 -28 -29 -30 -31
leaf_value=1.2610228052380204 1.7569467882184155 2.8855059280874671 1.4246742196630433 2.191651040844421 3.9702301697563973 1.3183141890245649 1.5508457051184026 4.9015139318293288 2.5169648729179128 7.0551064901072484 1.9531725449767614 3.8072697221073213 6.614311030278655 1.3649538380542641 1.6681600024918624 3.005643661282086 1.4744226382961128 2.4988481481679332 1.2848551230897041 4.9770927489083947 3.4052452589852988 9.7415160380700367 1.9117728219940324 2.1863299828600598 1.6499895533268374 4.8903696477110925 1.5654275152475086 1.6850060619281284 1.8040165757613122 3.9441274497713064
leaf_weight=1970058 26858 2076 189629 13280 511 718687 58208 166 4145 66 10809 1249 176 359899 23366 3788 85180 6367 936936 1006 2779 119 20555 8355 36963 209 34174 1140 14963 26
leaf_count=1970058 26858 2076 189629 13280 511 718687 58208 166 4145 66 10809 1249 176 359899 23366 3788 85180 6367 936936 1006 2779 119 20555 8355 36963 209 34174 1140 14963 26
internal_value=1.32838 2.19103 1.30841 2.04655 3.81388 1.28646 1.50623 5.18886 2.42326 6.70017 1.89049 3.36304 7.47169 1.33388 1.62721 2.75031 1.45396 2.2912 1.26887 4.63793 3.183 8.78312 1.82407 2.05482 1.58935 3.96253 1.50048 1.28534 1.7212 6.27062
internal_weight=4.53174e+06 102540 4.4292e+06 94157 8383 3.98672e+06 442483 2070 27580 553 66577 6313 387 1.07859e+06 133500 7933 308983 19647 2.90813e+06 1517 4855 185 47413 19164 95171 1458 119354 938076 38329 202
internal_count=4531743 102540 4429203 94157 8383 3986720 442483 2070 27580 553 66577 6313 387 1078586 133500 7933 308983 19647 2908134 1517 4855 185 47413 19164 95171 1458 119354 938076 38329 202
is_linear=0
shrinkage=1


Tree=1
num_leaves=31
num_cat=0
split_feature=15 13 15 10 15 15 15 11 5 11 21 5 15 19 12 5 15 12 13 5 13 4 23 15 15 23 13 13 21 15
split_gain=1.91877e+07 5.71107e+06 4.96412e+06 1.4561e+06 1.08845e+06 921251 652942 421500 253992 251794 230963 197941 133279 124750 124034 119993 110597 87140.9 85529.1 84721.3 66011.4 61507.7 80128.9 59863.7 57199.4 51836.4 104889 48729.7 74671.1 48588.5
threshold=9.3035712242126483 31.071428298950199 2.7678571939468388 60.500000000000007 18.160714149475101 0.94642856717109691 5.2678570747375497 95.500000000000014 1.0000000180025095e-35 45.500000000000007 1.3000000119209292 1.0000000180025095e-35 1.7321428656578066 0.68573892116546642 59.500000000000007 1.0000000180025095e-35 13.517857074737551 68.500000000000014 14.928571224212648 1.0000000180025095e-35 42.500000000000007 1.5000000000000002 0.35065016150474554 25.303571701049808 7.0178570747375497 0.48177790641784674 72.357143402099624 72.357143402099624 1.1999999880790713 3.9107142686843877
decision_type=2 2 2 2 2 2 2 2 2 2 2 2 2 2 2 2 2 2 2 2 2 2 2 2 2 2 2 2 2 2
left_child=2 4 5 9 11 13 19 14 -6 20 21 16 -7 -1 -5 24 -2 -11 -13 29 -3 -9 -23 -10 -8 26 -19 -16 -29 -4
right_child=1 3 6 7 8 12 15 10 23 17 -12 18 -14 -15 27 -17 -18 25 -20 -21 -22 22 -24 -25 -26 -27 -28 28 -30 -31
leaf_value=-0.062397871827222638 0.44270334753795232 1.5021615405456903 0.084390685543084418 2.6868982385737552 0.94785667366260951 -0.0040242642348498016 0.21615568161097751 4.8620837465922033 1.3143087727737668 2.261476657968156 4.2305749356536051 0.66182922666650368 0.04218265335596387 -0.035801537432796265 3.4017308939621622 0.3832192001097024 0.63908061552176743 3.100748210455242 0.95771812680702606 0.18261289434690403 1.9368802374480214 4.6906046032905575 8.418257566285364 1.7669132719573137 0.31084445305364516 2.9814715340746889 8.3844860076904304 7.4117583889431424 4.0724641984939574 0.14621309132513091
leaf_weight=2143532 32395 3949 118312 840 13576 640272 54118 36 3942 1709 283 14337 346254 902075 485 37551 15154 38 4660 77392 1845 26 103 1435 39899 223 21 27 225 74638
leaf_count=2143532 32395 3949 118312 840 13576 640272 54118 36 3942 1709 283 14337 346254 902075 485 37551 15154 38 4660 77392 1845 26 103 1435 39899 223 21 27 225 74638
internal_value=-4.88724e-05 0.842271 -0.0181544 2.21343 0.684947 -0.0381977 0.182929 3.64671 1.08609 1.84062 5.27081 0.570697 0.0121936 -0.0545203 3.18532 0.292553 0.505289 2.42272 0.734411 0.129578 1.64059 7.05498 7.66695 1.4351 0.25634 3.3999 4.9814 3.75341 4.43025 0.108305
internal_weight=4.52935e+06 95309 4.43404e+06 9810 85499 4.03213e+06 401910 2025 18953 7785 448 66546 986526 3.04561e+06 1577 131568 47549 1991 18997 270342 5794 165 129 5377 94017 282 59 737 252 192950
internal_count=4529352 95309 4434043 9810 85499 4032133 401910 2025 18953 7785 448 66546 986526 3045607 1577 131568 47549 1991 18997 270342 5794 165 129 5377 94017 282 59 737 252 192950
is_linear=0
shrinkage=0.06


Tree=2
num_leaves=31
num_cat=0
split_feature=15 14 15 9 15 20 15 9 9 29 21 3 9 15 15 10 15 10 10 14 3 12 12 8 29 10 13 20 2 15
split_gain=1.70042e+07 5.35811e+06 4.18142e+06 1.26605e+06 1.18344e+06 684313 667694 322349 276196 260184 321724 188830 150534 118768 106635 102871 84319.5 80306.5 78180.5 75060.1 67599.9 66251.3 58278.3 52967.9 49099.9 44940.9 51135.4 44620.1 44199 41265
threshold=8.9107146263122576 32.964284896850593 2.4464285373687749 74.500000000000014 16.125000000000004 1.0284112095832827 4.8392858505249032 47.500000000000007 23.500000000000004 724.50000000000011 1.1999999880790713 2013.5000000000002 12.500000000000002 1.4464285969734194 6.5535714626312265 54.500000000000007 3.4821428060531621 30.500000000000004 48.500000000000007 0.39285714924335485 2011.5000000000002 107.50000000000001 63.500000000000007 40.500000000000007 724.50000000000011 14.500000000000002 36.928571701049812 5.8533899784088144 11.500000000000002 20.803571701049808
decision_type=2 2 2 2 2 2 2 2 2 2 2 2 2 2 2 2 2 2 2 2 2 2 2 2 2 2 2 2 2 2
left_child=2 4 5 7 12 19 16 18 22 10 -5 20 -2 27 -8 -9 -4 -10 -3 -1 -12 -20 29 -11 -24 26 -14 -7 -22 -6
right_child=1 3 6 9 8 13 14 15 17 23 11 -13 25 -15 -16 -17 -18 -19 21 -21 28 -23 24 -25 -26 -27 -28 -29 -30 -31
leaf_value=-0.059850223618005856 0.42947530684268143 1.5184538576998698 0.076973116598553659 10.202089915752412 0.74539765358871812 -0.015379376020542278 0.21145003936017534 2.1583582390655742 1.1161363079641764 3.4433268967640989 7.5575247648487913 2.9709628784585984 0.54709842009775911 0.024746053076589621 0.31307807140146177 2.9587691072901787 0.14002033903871888 1.5000164245558771 2.0158971926200668 -0.036913192462942543 4.886238615724964 5.201260857582092 3.2326446033082901 1.8610021452065351 1.1777248498033885 0.71971158175878525 2.7803754118970923 0.20745744696119153 7.6788750145652074 0.93225912384756204
leaf_weight=2082019 42126 3723 191790 40 10920 744714 86788 1324 6598 467 46 169 15106 444609 65010 1026 126890 2792 1142 681811 281 24 64 91 121 9375 37 3249 22 6970
leaf_count=2082019 42126 3723 191790 40 10920 744714 86788 1324 6598 467 46 169 15106 444609 65010 1026 126890 2792 1142 681811 281 24 64 91 121 9375 37 3249 22 6970
internal_value=-5.05324e-06 0.764139 -0.0176918 2.22031 0.63486 -0.0378005 0.151409 1.93032 0.966295 4.10141 5.01755 4.6172 0.49827 0.000187083 0.254974 2.50781 0.102077 1.23028 1.65273 -0.0541919 5.41437 2.08146 0.829155 3.18528 1.88862 0.616471 0.552555 -0.0144114 5.089 0.818199
internal_weight=4.52934e+06 102464 4.42688e+06 8355 94109 3.9564e+06 470478 7239 27465 1116 558 518 66644 1.19257e+06 151798 2350 318680 9390 4889 2.76383e+06 349 1166 18075 558 185 24518 15143 747963 303 17890
internal_count=4529344 102464 4426880 8355 94109 3956402 470478 7239 27465 1116 558 518 66644 1192572 151798 2350 318680 9390 4889 2763830 349 1166 18075 558 185 24518 15143 747963 303 17890
is_linear=0
shrinkage=0.06


Tree=3
num_leaves=31
num_cat=0
split_feature=15 15 15 15 9 15 15 9 9 3 29 23 9 20 15 15 10 5 5 9 5 29 5 8 2 5 5 5 3 20
split_gain=1.50432e+07 4.30579e+06 4.13751e+06 1.05713e+06 942663 780641 529731 282685 232592 209832 309505 210278 167705 139343 115816 102226 100572 95663.2 88708.1 83587.1 83385.9 72037.7 66698.6 63867.3 78770.4 63247.2 60690.1 46399.2 45983.2 45433.9
threshold=9.8035712242126483 35.607143402099616 2.9107142686843877 18.160714149475101 74.500000000000014 1.053571403026581 6.3392858505249032 30.500000000000004 43.500000000000007 2013.5000000000002 724.50000000000011 0.43164333701133734 17.500000000000004 0.73876711726188671 4.1250000000000009 1.9107143282890322 56.500000000000007 1.0000000180025095e-35 1.0000000180025095e-35 110.00000000000001 1.0000000180025095e-35 724.50000000000011 1.0000000180025095e-35 25.500000000000004 11.500000000000002 1.0000000180025095e-35 1.0000000180025095e-35 1.0000000180025095e-35 2012.5000000000002 7.7019877433776864
decision_type=2 2 2 2 2 2 2 2 2 2 2 2 2 2 2 2 2 2 2 2 2 2 2 2 2 2 2 2 2 2
left_child=2 3 5 12 8 13 14 20 21 10 11 -6 26 -1 -4 -7 -10 -8 -13 22 -5 28 -9 -11 -25 -16 -2 -14 -3 -15
right_child=1 4 6 7 9 15 17 19 16 23 -12 18 27 29 25 -17 -18 -19 -20 -21 -22 -23 -24 24 -26 -27 -28 -29 -30 -31
leaf_value=-0.055487125659870067 0.43249194135161745 4.6049331977150656 0.099862218916368442 0.82480373229422876 10.038703684943062 0.002447397024190993 0.26246731192265704 1.1561600210353529 2.0715630997334551 1.3934410259458754 3.1344760698807792 4.3509982279684483 0.60673243526751974 -0.028817767736980693 0.14950377486325078 0.045885250941427515 2.8630578974937309 0.4003200567287945 6.2637926327554796 5.0090760980999987 1.1560013651832965 1.5166065846188816 1.5868252451077685 3.6713678987485814 -0.14936125972054221 0.24043827233875051 0.59724289798242103 0.83086563766911214 2.2308329386155257 0.27348945707465039
leaf_weight=2188286 34828 33 158666 13148 35 604226 63096 2447 1483 108 344 205 7039 978304 96411 288010 947 25425 152 23 3456 2984 2749 166 22 38543 10469 6302 267 1793
leaf_count=2188286 34828 33 158666 13148 35 604226 63096 2447 1483 108 344 205 7039 978304 96411 288010 947 25425 152 23 3456 2984 2749 166 22 38543 10469 6302 267 1793
internal_value=-2.42359e-05 0.780389 -0.015343 0.658312 2.23642 -0.0331057 0.173403 1.01481 1.935 3.90535 4.44792 5.60052 0.525636 -0.0470662 0.134615 0.016469 2.38002 0.302061 5.16541 1.39998 0.89374 1.60571 1.38401 2.55626 3.22426 0.175475 0.470569 0.712608 2.49198 -0.0282647
internal_weight=4.52997e+06 87207 4.44276e+06 80461 6746 4.06062e+06 382141 21823 5714 1032 736 392 58638 3.16838e+06 293620 892236 2430 88521 357 5219 16604 3284 5196 296 188 134954 45297 13341 300 980097
internal_count=4529967 87207 4442760 80461 6746 4060619 382141 21823 5714 1032 736 392 58638 3168383 293620 892236 2430 88521 357 5219 16604 3284 5196 296 188 134954 45297 13341 300 980097
is_linear=0
shrinkage=0.06


Tree=4
num_leaves=31
num_cat=0
split_feature=15 15 14 15 9 15 15 0 12 0 0 23 19 13 14 14 0 13 14 13 2 9 8 14 0 2 0 8 8 0
split_gain=1.33068e+07 3.88254e+06 3.74409e+06 904005 796535 740356 486328 256288 169925 169128 141251 138375 127157 95482.6 92739 92327.2 91799.9 88127.3 81864.9 63690.8 57959.9 73991.3 53324.1 51060.2 48793.3 47968.5 46433.5 46117.7 45597.2 40923.1
threshold=10.339285373687746 3.053571462631226 38.535715103149421 18.160714149475101 74.500000000000014 1.1250000000000002 6.3392858505249032 4.5000000000000009 87.000000000000014 4.5000000000000009 4.5000000000000009 0.48177790641784674 0.7449120581150056 27.214285850524906 2.1785713434219365 4.4642856121063241 4.5000000000000009 26.071428298950199 49.607143402099616 15.785714149475099 3.5000000000000004 138.00000000000003 45.500000000000007 15.035714149475099 4.5000000000000009 7.5000000000000009 3.5000000000000004 35.500000000000007 12.500000000000002 4.5000000000000009
decision_type=2 2 2 2 2 2 2 2 2 2 2 2 2 2 2 2 2 2 2 2 2 2 2 2 2 2 2 2 2 2
left_child=1 5 3 10 9 12 15 17 20 18 19 25 -1 -9 -7 29 -8 -5 -4 -2 -6 -22 -13 -12 -17 -10 -23 -27 -20 -3
right_child=2 6 4 7 8 14 16 13 11 -11 23 22 -14 -15 -16 24 -18 -19 28 -21 21 26 -24 -25 -26 27 -28 -29 -30 -31
leaf_value=-0.051168989090995168 0.40394814063677215 0.08415689509136004 1.4770626658829062 0.74004060645757019 1.7271478428529656 0.0075633152702669921 0.25258720520519296 1.1383592064215273 4.5042049853007002 2.580438687984671 0.60092651854405743 4.0349555877424201 -0.02503739841838264 1.6421254340129823 0.052556015232923144 0.14966294393970866 0.38230177736067972 1.037087335076873 1.2856569689918647 0.58816356884745991 3.1517529656078622 3.5786429929733274 0.99040329228276791 0.85102977632391008 0.23882195785059943 9.0110348510742178 7.4931098186969756 6.0609733452335472 2.180636249689778 0.15135955753716351
leaf_weight=2295995 27206 113946 2193 10662 92 619133 68798 4645 54 1034 10518 208 946802 1912 224806 77132 27489 5425 242 8989 522 20 23 4078 30969 24 24 93 1338 45706
leaf_count=2295995 27206 113946 2193 10662 92 619133 68798 4645 54 1034 10518 208 946802 1912 224806 77132 27489 5425 242 8989 522 20 23 4078 30969 24 24 93 1338 45706
internal_value=-5.93871e-05 -0.0137859 0.77033 0.6538 2.22889 -0.0305113 0.173975 0.969084 3.71767 1.9006 0.513238 4.68958 -0.0435393 1.28526 0.0195483 0.132388 0.289619 0.840213 1.71429 0.449698 3.12389 3.35092 3.73182 0.670803 0.175205 5.98341 5.71381 6.66611 2.04356 0.103396
internal_weight=4.53008e+06 4.45078e+06 79302 73435 5867 4.08674e+06 364040 22644 1060 4807 50791 402 3.2428e+06 6557 843939 267753 96287 16087 3773 36195 658 566 231 14596 108101 171 44 117 1580 159652
internal_count=4530078 4450776 79302 73435 5867 4086736 364040 22644 1060 4807 50791 402 3242797 6557 843939 267753 96287 16087 3773 36195 658 566 231 14596 108101 171 44 117 1580 159652
is_linear=0
shrinkage=0.06


Tree=5
num_leaves=31
num_cat=0
split_feature=16 14 14 9 16 16 14 9 9 9 23 13 12 14 16 9 11 9 16 12 13 8 3 3 12 3 9 10 8 14
split_gain=1.19031e+07 3.73249e+06 2.78736e+06 1.01218e+06 695200 523208 390908 314228 193929 181650 114466 130848 98228.8 87280 85565.4 81232.4 78340.2 77198.1 76845.1 76117.7 55065.7 54030.8 55495.6 51181.1 50595.6 48858.6 40668.6 41087.9 39714.2 37410.1
threshold=8.4375000000000018 28.178570747375492 2.6071428060531621 59.500000000000007 14.080357074737551 0.94689851999282848 5.1071429252624521 94.500000000000014 36.500000000000007 20.500000000000004 0.48177790641784674 72.357143402099624 55.500000000000007 0.46428571641445165 1.8224789500236513 11.500000000000002 42.500000000000007 9.5000000000000018 3.8451746702194218 87.000000000000014 16.357143402099613 33.500000000000007 2012.5000000000002 2014.5000000000002 57.500000000000007 2014.5000000000002 47.500000000000007 21.500000000000004 42.500000000000007 16.392857551574711
decision_type=2 2 2 2 2 2 2 2 2 2 2 2 2 2 2 2 2 2 2 2 2 2 2 2 2 2 2 2 2 2
left_child=2 4 5 8 15 13 18 12 19 24 11 -9 -5 -1 -7 -2 -10 -8 -4 -3 -19 -13 28 -12 29 -26 27 -11 -23 -6
right_child=1 3 6 7 9 14 17 10 16 26 23 21 -14 -15 -16 -17 -18 20 -20 -21 -22 22 -24 -25 25 -27 -28 -29 -30 -31
leaf_value=-0.048810682462161192 0.33172014935647542 1.1116093154475271 0.07098766465814417 1.9124518432683733 0.52665077924811987 -0.0032658732077111134 0.18952360049316366 2.0085760349451109 1.4479551749648449 0.77913374696545357 3.608758123057584 4.1111146806415757 2.846641717732179 -0.025378844339383356 0.036704328689446682 0.47124575093504378 1.9900405281730498 0.28065589306852667 0.1366644488096935 3.2968551204122343 0.69368342390597204 4.011214839526585 8.5899411621093744 1.5958404408560858 0.91972311608169388 2.6031862002926713 1.4377971463501453 1.0122622117423359 6.4695473576898443 0.68459506903334078
leaf_weight=2286854 40959 5399 203517 833 10475 671125 100306 43 2154 5742 288 57 789 763283 270531 23722 1731 31205 93646 58 1207 35 30 54 230 85 510 5174 73 11140
leaf_count=2286854 40959 5399 203517 833 10475 671125 100306 43 2154 5742 288 57 789 763283 270531 23722 1731 31205 93646 58 1207 35 30 54 230 85 510 5174 73 11140
internal_value=6.46085e-05 0.617792 -0.0152443 1.63826 0.49763 -0.0308774 0.129921 2.79548 1.36549 0.720121 3.99408 5.0045 2.36688 -0.042947 0.00821728 0.382892 1.68949 0.215536 0.0916846 1.13484 0.296037 5.66513 6.30701 3.29093 0.619054 1.37399 0.9141 0.889633 5.67287 0.608053
internal_weight=4.53126e+06 109581 4.42167e+06 11544 98037 3.99179e+06 429881 2202 9342 33356 580 238 1622 3.05014e+06 941656 64681 3885 132718 297163 5457 32412 195 138 342 21930 315 11426 10916 108 21615
internal_count=4531255 109581 4421674 11544 98037 3991793 429881 2202 9342 33356 580 238 1622 3050137 941656 64681 3885 132718 297163 5457 32412 195 138 342 21930 315 11426 10916 108 21615
is_linear=0
shrinkage=0.06


Tree=6
num_leaves=31
num_cat=0
split_feature=16 13 15 10 16 20 16 9 0 29 3 28 0 0 12 16 15 10 0 16 0 23 13 8 8 13 18 2 12 13
split_gain=1.0515e+07 3.72767e+06 2.00423e+06 897507 890255 359763 300451 286666 196712 170846 183171 147149 109149 104371 86856.7 78684.7 68701.3 68478.4 68079.4 65104.4 63264 60714.2 53356 47029.9 69204.2 40034.2 39648.9 39494.3 37580.9 36785.2
threshold=7.3482143878936776 29.642856597900394 2.1964285373687749 73.500000000000014 14.080357074737551 0.97226139903068554 4.169642686843873 47.500000000000007 4.5000000000000009 724.50000000000011 2013.5000000000002 24.500000000000004 4.5000000000000009 3.5000000000000004 49.500000000000007 24.375000000000004 20.803571701049808 39.500000000000007 4.5000000000000009 1.4647009968757632 4.5000000000000009 0.43164333701133734 11.071428775787355 20.500000000000004 10.500000000000002 10.500000000000002 0.44731126725673681 7.5000000000000009 43.500000000000007 3.2142857313156132
decision_type=2 2 2 2 2 2 2 2 2 2 2 2 2 2 2 2 2 2 2 2 2 2 2 2 2 2 2 2 2 2
left_child=2 4 5 7 12 26 20 17 16 10 13 23 22 27 -9 -10 -6 -3 -8 29 -4 -15 -2 24 -12 -14 -1 -5 -11 -7
right_child=1 3 6 9 8 19 18 14 15 28 11 -13 25 21 -16 -17 -18 -19 -20 -21 -22 -23 -24 -25 -26 -27 -28 -29 -30 -31
leaf_value=-0.048778030820150024 0.25197201743500036 1.0486942454122332 0.047653236263538692 2.2423684087973923 0.52403984276333881 -0.013979267725562345 0.13813006785019849 1.6199439768511998 0.83629092642794467 1.6139195833402342 0.32299686735326594 4.0963882595104169 0.37518325349886633 8.3996503993443081 2.2908066511994427 1.2932982032680091 0.73814712319766551 1.4647889868205468 0.22369818435426636 0.01767437393121736 0.10445644327557649 5.0318306561311079 0.3677073441347371 -0.92149151106138483 4.328343009948731 0.52723518277899117 -0.033461195354215968 4.1574436592537429 2.6987555628817228 0.12309555848731714
leaf_weight=1716429 46884 4611 245944 67 16493 862128 116647 1702 8176 158 44 91 17279 21 1174 1626 8018 2060 46944 353704 98997 234 20659 37 24 9752 942482 92 422 7106
leaf_count=1716429 46884 4611 245944 67 16493 862128 116647 1702 8176 158 44 91 17279 21 1174 1626 8018 2060 46944 353704 98997 234 20659 37 24 9752 942482 92 422 7106
internal_value=1.35268e-05 0.512612 -0.0162883 1.58673 0.423132 -0.0309611 0.095716 1.39306 0.684926 3.14051 3.84153 2.33045 0.328148 4.55692 1.89379 0.912101 0.594078 1.17718 0.162685 -0.00402776 0.0639556 5.30918 0.287371 0.799971 1.73665 0.430039 -0.0433488 3.35046 2.40323 -0.0128587
internal_weight=4.53e+06 139624 4.39038e+06 10737 128887 3.88185e+06 508532 9547 34313 1190 610 196 94574 414 2876 9802 24511 6671 163591 1.22294e+06 344941 255 67543 105 68 27031 2.65891e+06 159 580 869234
internal_count=4530005 139624 4390381 10737 128887 3881849 508532 9547 34313 1190 610 196 94574 414 2876 9802 24511 6671 163591 1222938 344941 255 67543 105 68 27031 2658911 159 580 869234
is_linear=0
shrinkage=0.06


Tree=7
num_leaves=31
num_cat=0
split_feature=13 13 20 9 13 13 13 29 23 11 0 12 5 29 0 20 12 0 2 13 13 13 20 12 0 29 0 12 13 2
split_gain=9.0671e+06 2.92501e+06 2.15728e+06 733158 594554 387910 347640 199374 202137 170926 146860 123640 103023 89016.5 84427.6 78438.9 72528.1 69671.5 68468.7 64291.2 63498.5 62062.1 60979.1 55757.4 54624.5 52665 51778.7 44416.4 42524.5 42342.6
threshold=8.9285712242126483 31.071428298950199 2.1665625572204594 66.500000000000014 16.357143402099613 0.92857143282890331 4.9285714626312265 724.50000000000011 0.47374695539474493 42.500000000000007 4.5000000000000009 57.500000000000007 1.0000000180025095e-35 724.50000000000011 4.5000000000000009 6.7098855972290048 43.500000000000007 4.5000000000000009 11.500000000000002 3.0714285373687749 23.500000000000004 1.928571403026581 0.65552005171775829 97.000000000000014 3.5000000000000004 698.50000000000011 3.5000000000000004 12.500000000000002 22.071428298950199 5.5000000000000009
decision_type=2 2 2 2 2 2 2 2 2 2 2 2 2 2 2 2 2 2 2 2 2 2 2 2 2 2 2 2 2 2
left_child=2 4 5 9 12 22 11 8 14 -3 28 15 -2 25 29 19 -11 -8 26 -4 -12 -7 -1 -16 -9 -13 -10 -14 -6 -5
right_child=1 3 6 7 10 21 17 24 18 16 20 13 27 -15 23 -17 -18 -19 -20 -21 -22 -23 -24 -25 -26 -27 -28 -29 -30 -31
leaf_value=-0.044747779740736404 0.30555544195525458 1.1089226658943063 0.042502511430919106 2.2369133842932549 0.52341851435025111 -0.004385185217780912 0.15774087841871284 1.1905606202121639 1.8977791060945566 1.3513094347465802 0.79011231899542966 -0.0039755081087350843 0.38514571685792859 0.26491269964382519 8.5558781962924542 0.19932036675190978 1.9772067626216703 0.25053752061887063 -0.31867883425492505 0.095912820697004117 1.1641156629235727 0.029463172997029531 -0.026639417021020961 5.2809851730846971 2.3475129223153894 3.4180431023766014 3.3281591011130289 0.56420064319384922 0.70415644144215905 4.4970120535823082
leaf_weight=1980902 49474 5429 186604 38 12303 664337 102299 183 136 1218 5770 20 10963 100 27 16618 1472 40721 26 143548 2280 276036 1011204 61 745 85 276 9150 7570 139
leaf_count=1980902 49474 5429 186604 38 12303 664337 102299 183 136 1218 5770 20 10963 100 27 16618 1472 40721 26 143548 2280 276036 1011204 61 745 85 276 9150 7570 139
internal_value=-5.11538e-05 0.545032 -0.0132713 1.53591 0.445955 -0.0280635 0.105445 2.69674 3.45892 1.30271 0.679841 0.072998 0.352104 1.54608 4.76693 0.0721272 1.69381 0.184162 2.66754 0.065725 0.896041 0.00555062 -0.0386279 6.28578 2.11936 2.76623 2.85599 0.466603 0.592265 4.01179
internal_weight=4.52973e+06 107260 4.42247e+06 9750 97510 3.93248e+06 489995 1631 703 8119 27923 346975 69587 205 265 346770 2690 143020 438 330152 8050 940373 2.99211e+06 88 928 105 412 20113 19873 177
internal_count=4529734 107260 4422474 9750 97510 3932479 489995 1631 703 8119 27923 346975 69587 205 265 346770 2690 143020 438 330152 8050 940373 2992106 88 928 105 412 20113 19873 177
is_linear=0
shrinkage=0.06


Tree=8
num_leaves=31
num_cat=0
split_feature=16 13 16 16 9 15 16 10 0 9 29 23 13 0 16 23 12 0 9 8 29 23 2 13 0 13 0 20 8 13
split_gain=8.3461e+06 2.4654e+06 2.16574e+06 655662 570237 394700 310749 220711 174343 103998 99712.1 139628 72267.7 72086.7 64539.2 63492.5 62719.3 57062 50943.1 44171.7 50278.6 98006.9 69280.1 42668.9 42017.8 41895.5 40731.4 39881 38194.1 35424.9
threshold=9.2767858505249041 36.928571701049812 2.6854395866394047 17.741071701049808 92.500000000000014 0.80357143282890331 6.0089285373687753 60.500000000000007 4.5000000000000009 15.500000000000002 724.50000000000011 0.43164333701133734 2.2142857313156132 4.5000000000000009 24.375000000000004 0.50499892234802257 38.500000000000007 3.5000000000000004 20.500000000000004 10.500000000000002 724.50000000000011 0.48177790641784674 11.500000000000002 6.7857143878936776 4.5000000000000009 4.6428573131561288 4.5000000000000009 0.59350019693374645 40.500000000000007 20.500000000000004
decision_type=2 2 2 2 2 2 2 2 2 2 2 2 2 2 2 2 2 2 2 2 2 2 2 2 2 2 2 2 2 2
left_child=2 3 5 9 7 27 13 16 18 -2 11 -6 24 25 -10 -13 -3 -8 -5 -9 21 -21 -23 -14 -7 -4 -22 -1 -12 -15
right_child=1 4 6 8 10 12 17 19 14 -11 28 15 23 29 -16 -17 -18 -19 -20 20 26 22 -24 -25 -26 -27 -28 -29 -30 -31
leaf_value=-0.042525588847346571 0.32927563901321039 1.0986359500596781 0.056468685495191809 0.55816338996398318 7.7272416079044337 -0.01067076909999271 0.17438735083104065 1.2344588425173562 0.86643293711634917 0.50124540907708681 2.5893672504928542 4.0294617255779599 0.033417957038436863 0.13452123024404 1.2562096609546609 2.2358197092240855 1.5379812077481392 0.26911614755713753 0.77386428404555563 4.7710747919454208 1.4991656061077898 2.6236471530493457 -0.96610702514648439 0.27223098079074726 0.017058402377402367 0.11326624534067013 2.3357468949412477 -0.027682459947369641 0.068655812358856191 1.5357264162210318
leaf_weight=1847615 46605 2647 163726 9732 32 687012 53376 169 4089 17381 161 301 200790 92154 2443 93 2096 40083 6625 77 328 247 21 2730 275662 65440 580 1006727 25 65
leaf_count=1847615 46605 2647 163726 9732 32 687012 53376 169 4089 17381 161 301 200790 92154 2443 93 2096 40083 6625 77 328 247 21 2730 275662 65440 580 1006727 25 65
internal_value=2.9009e-05 0.560557 -0.0118064 0.474575 1.66277 -0.025274 0.118717 1.48936 0.750171 0.375989 3.4096 3.91566 0.00413704 0.0907137 1.01221 3.60609 1.29279 0.215015 0.645528 2.14501 2.26783 2.88442 2.34236 0.0366214 -0.00273051 0.0726876 2.03355 -0.0372904 2.25056 0.135509
internal_weight=4.52903e+06 93652 4.43538e+06 86875 6777 4.02054e+06 414844 6165 22889 63986 612 426 1.16619e+06 321385 6532 394 4743 93459 16357 1422 1253 345 268 203520 962674 229166 908 2.85434e+06 186 92219
internal_count=4529032 93652 4435380 86875 6777 4020536 414844 6165 22889 63986 612 426 1166194 321385 6532 394 4743 93459 16357 1422 1253 345 268 203520 962674 229166 908 2854342 186 92219
is_linear=0
shrinkage=0.06


Tree=9
num_leaves=31
num_cat=0
split_feature=16 14 14 16 16 11 13 10 16 10 29 21 14 16 28 3 11 16 8 16 11 29 3 13 11 11 10 11 8 3
split_gain=7.32005e+06 2.29832e+06 1.71796e+06 744496 350736 349893 230058 126147 105599 91417.7 69126.6 107498 64445.8 61518.5 54447.5 65090.8 53734.9 51133 47037.7 45650.3 52217.2 167541 84707.8 44247.1 43212.1 40754.9 37580.3 33007.6 32736.5 40644.4
threshold=8.4375000000000018 38.535715103149421 2.7500000000000004 17.741071701049808 1.0400793552398684 74.500000000000014 5.7857143878936776 31.500000000000004 11.866071224212648 54.500000000000007 724.50000000000011 1.3000000119209292 0.53571429848670971 4.5982143878936776 29.500000000000004 2012.5000000000002 121.50000000000001 1.991071403026581 45.500000000000007 24.375000000000004 1.0000000180025095e-35 724.50000000000011 2012.5000000000002 14.500000000000002 1.0000000180025095e-35 37.500000000000007 14.500000000000002 51.500000000000007 12.500000000000002 2013.5000000000002
decision_type=2 2 2 2 2 2 2 2 2 2 2 2 2 2 2 2 2 2 2 2 2 2 2 2 2 2 2 2 2 2
left_child=2 3 4 8 12 9 13 19 -2 -3 11 14 -1 -4 16 -16 -7 -6 28 -5 21 22 -21 -8 -11 -9 -10 -26 29 -13
right_child=1 5 6 7 17 10 23 25 26 24 -12 18 -14 -15 15 -17 -18 -19 -20 20 -22 -23 -24 -25 27 -27 -28 -29 -30 -31
leaf_value=-0.037769133950196536 0.27638788887513654 1.2451466113966494 0.064600021402045377 0.57678228164466439 0.001272141258252742 1.6237323616309598 0.1780719105418456 0.86120920312502081 0.36205128935344411 3.315449057138883 2.1067697959977871 2.8280652177852135 -0.017510572914759711 0.12855458418846863 4.3517985645532606 7.9735684303615395 4.4043371570521392 0.034232237416345013 0.54832628715329046 0.25478169209616525 0.73202217813285519 0.33001829012063144 3.5748751294883814 0.42916379933720838 1.4339122748162063 1.2238277256916172 0.49592270881283135 1.9969388494815081 3.0744581031591998 0.092303848827586452
leaf_weight=2416229 48876 3313 223396 12568 638033 44 100001 3429 18100 65 469 46 737953 71468 80 23 58 230716 41 35 5669 209 132 2592 700 1654 12950 807 230 34
leaf_count=2416229 48876 3313 223396 12568 638033 44 100001 3429 18100 65 469 46 737953 71468 80 23 58 230716 41 35 5669 209 132 2592 700 1654 12950 807 230 34
internal_value=3.14966e-05 0.484564 -0.0119746 0.418926 -0.0237318 1.63541 0.107027 0.714294 0.331357 1.42394 2.64326 3.09581 -0.0330294 0.0801011 4.18747 5.16054 3.20486 0.0100254 2.45822 0.64195 0.777437 1.46217 2.87905 0.184416 1.80075 0.979205 0.417885 1.73541 2.71082 1.66537
internal_weight=4.52992e+06 109532 4.42039e+06 103622 4.02293e+06 5910 397457 23696 79926 4885 1025 556 3.15418e+06 294864 205 103 102 868749 351 18613 6045 376 167 102593 1572 5083 31050 1507 310 80
internal_count=4529920 109532 4420388 103622 4022931 5910 397457 23696 79926 4885 1025 556 3154182 294864 205 103 102 868749 351 18613 6045 376 167 102593 1572 5083 31050 1507 310 80
is_linear=0
shrinkage=0.06


Tree=10
num_leaves=31
num_cat=0
split_feature=16 15 16 16 9 20 16 9 9 0 3 28 23 29 0 5 0 0 11 15 18 8 8 0 0 11 0 15 21 15
split_gain=6.51617e+06 1.92243e+06 1.69834e+06 489150 448358 323625 232884 161623 141472 98827 82008.2 74025.3 69578.4 69031.6 64679.8 60058.5 58674 54414.6 49333.7 47762.3 46940.4 44958.6 42135.8 40708.8 38800.6 35794.5 35086.3 32352.5 31809.4 26385.7
threshold=9.2767858505249041 35.607143402099616 2.774172425270081 17.741071701049808 59.500000000000007 1.1616648435592654 5.6517856121063241 27.500000000000004 92.500000000000014 3.5000000000000004 2013.5000000000002 24.500000000000004 0.35065016150474554 724.50000000000011 3.5000000000000004 1.0000000180025095e-35 4.5000000000000009 3.5000000000000004 95.500000000000014 13.517857074737551 0.61348888278007518 36.500000000000007 40.500000000000007 3.5000000000000004 4.5000000000000009 49.500000000000007 3.5000000000000004 1.6964285969734194 1.4750000238418581 13.517857074737551
decision_type=2 2 2 2 2 2 2 2 2 2 2 2 2 2 2 2 2 2 2 2 2 2 2 2 2 2 2 2 2 2
left_child=2 3 5 9 12 20 15 26 25 29 13 -12 22 23 -14 -4 -7 -8 -16 -11 -1 -15 -3 -10 -9 -6 -5 -18 -20 -2
right_child=1 4 6 7 8 16 17 24 10 19 11 -13 14 21 18 -17 27 -19 28 -21 -22 -23 -24 -25 -26 -27 -28 -29 -30 -31
leaf_value=-0.037288709991174084 0.23523531533448205 0.89421787271296582 0.062063704485526359 0.4934917846835013 1.412564838712032 -0.0022491235109355487 0.14562696317006468 0.76773696192997598 2.9132286475531077 0.36645147837123537 0.23694519497099376 3.0531979050238922 1.102176247783698 3.1334703858305768 1.5396083180258753 0.12280463992029247 0.014309856106393376 0.23083382608416875 5.1489405831423678 0.53569707889186968 -0.021262265235896628 0.83632475152307628 -0.12593690508414829 4.3879749929961438 1.0620971866654987 2.1028212433607321 0.67912665417535201 0.055449708755847142 2.1852065536379812 0.34441755346603303
leaf_weight=2027882 24870 637 204685 10539 377 739903 63098 3259 99 18757 63 72 2774 82 1226 82111 188557 47139 22 8828 973890 49 189 211 3190 957 5620 108363 32 11725
leaf_count=2027882 24870 637 204685 10539 377 739903 63098 3259 99 18757 63 72 2774 82 1226 82111 188557 47139 22 8828 973890 49 189 211 3190 957 5620 108363 32 11725
internal_value=-1.31021e-05 0.495468 -0.0104662 0.419401 1.46773 -0.0221071 0.107944 0.659401 2.24706 0.334859 3.03291 1.73895 1.16271 3.42902 1.26497 0.0794541 0.00679266 0.182063 1.61778 0.420615 -0.0320891 2.27423 0.660793 3.91701 0.913342 1.90775 0.558054 0.0293241 3.39265 0.270217
internal_weight=4.52921e+06 93578 4.43563e+06 86788 6790 4.0386e+06 397033 22608 1910 64180 576 135 4880 441 4054 286796 1.03682e+06 110237 1280 27585 3.00177e+06 131 826 310 6449 1334 16159 296920 54 36595
internal_count=4529206 93578 4435628 86788 6790 4038595 397033 22608 1910 64180 576 135 4880 441 4054 286796 1036823 110237 1280 27585 3001772 131 826 310 6449 1334 16159 296920 54 36595
is_linear=0
shrinkage=0.06


Tree=11
num_leaves=31
num_cat=0
split_feature=14 13 16 9 14 14 16 10 0 10 0 23 16 3 18 0 0 12 16 12 0 11 0 14 10 12 9 14 16 23
split_gain=5.78525e+06 1.92417e+06 1.32742e+06 493643 403229 265503 209828 176481 107214 91965.3 79346.2 71811.9 59938 82167.8 74204.5 53336.7 49656 45916.1 45730.8 43150.1 42514 40665.3 39383.3 37692.8 32508.9 32258.5 29440.1 28346.7 28085.1 26944.9
threshold=8.6071429252624529 31.071428298950199 2.5267857313156132 59.500000000000007 16.392857551574711 0.82142856717109691 4.8290817737579355 79.500000000000014 4.5000000000000009 46.500000000000007 3.5000000000000004 0.48177790641784674 24.375000000000004 2013.5000000000002 1.0000000180025095e-35 4.5000000000000009 4.5000000000000009 77.500000000000014 11.866071224212648 58.500000000000007 4.5000000000000009 80.000000000000014 3.5000000000000004 23.178570747375492 1.0000000180025095e-35 83.000000000000014 29.500000000000004 1.6071428656578066 0.48349568247795111 0.43164333701133734
decision_type=2 2 2 2 2 2 2 2 2 2 2 2 2 2 2 2 2 2 2 2 2 2 2 2 2 2 2 2 2 2
left_child=2 4 5 9 10 28 20 19 -6 26 -2 17 15 -14 -15 -8 -7 -9 -12 24 -4 -11 -19 -10 -5 -23 -3 -18 -1 -26
right_child=1 3 6 7 8 16 12 11 23 21 18 -13 13 14 -16 -17 27 22 -20 -21 -22 25 -24 -25 29 -27 -28 -29 -30 -31
leaf_value=-0.034201664958073877 0.22485953706485037 0.68326788233461488 0.044950617567302328 3.1859887067249844 0.47501837327302576 -0.004615550423748789 0.12303461373863588 2.5185353727000099 0.65522415585812721 1.2644171850487567 0.30130002560604363 2.3642431801243831 -0.1840344438298058 3.07157021195736 0.67882745398098931 0.20391573954469994 0.010027964000380845 2.6387884874939918 0.45531802918744363 2.0417361145931019 0.095672525645136369 1.7044643113650051 4.8245072851181021 0.94882434117897485 0.77112292290748441 3.5610989513993259 0.97233782080769382 0.047474514321609568 -0.019562688102156407 1.5211005730402691
leaf_weight=2287679 42689 1939 207864 35 18870 785897 102510 84 5257 1879 22159 456 131 86 102 41128 201198 40 10105 616 83342 113 115 2247 235 48 3667 114015 594382 648
leaf_count=2287679 42689 1939 207864 35 18870 785897 102510 84 5257 1879 22159 456 131 86 102 41128 201198 40 10105 616 83342 113 115 2247 235 48 3667 114015 594382 648
internal_value=2.00593e-05 0.427443 -0.0107375 1.22693 0.349528 -0.0216077 0.0887607 2.01262 0.551305 0.997881 0.278528 2.80579 0.148018 0.969551 1.77338 0.146193 0.00345385 3.64823 0.349538 1.65326 0.059467 1.34283 4.26045 0.74314 1.39259 2.258 0.872354 0.0235727 -0.0311826 1.3215
internal_weight=4.52954e+06 111202 4.41833e+06 9875 101327 3.98317e+06 435163 2229 26374 7646 74953 695 143957 319 188 143638 1.10111e+06 239 32264 1534 291206 2040 155 7504 918 161 5606 315213 2.88206e+06 883
internal_count=4529536 111202 4418334 9875 101327 3983171 435163 2229 26374 7646 74953 695 143957 319 188 143638 1101110 239 32264 1534 291206 2040 155 7504 918 161 5606 315213 2882061 883
is_linear=0
shrinkage=0.06


Tree=12
num_leaves=31
num_cat=0
split_feature=16 13 14 11 16 16 13 9 9 9 9 10 9 13 28 13 9 16 16 10 19 9 11 15 2 13 2 2 24 10
split_gain=5.11183e+06 1.82607e+06 983890 538196 339558 186297 151924 137685 128232 75518.5 75516.6 59953.4 57734.5 50218.5 41922.2 42871.4 39259.6 36058.2 34053.4 33701 32521.8 32355.1 30903.6 28100.7 47980.4 29042.4 27410.6 26892.1 24176.2 24015
threshold=7.3482143878936776 26.071428298950199 2.3214286565780644 57.500000000000007 14.080357074737551 0.86100387573242199 4.5000000000000009 41.500000000000007 92.500000000000014 20.500000000000004 138.00000000000003 50.500000000000007 10.500000000000002 16.785714149475101 1.0000000180025095e-35 72.357143402099624 58.500000000000007 3.4196429252624516 1.6440092325210574 39.500000000000007 0.52135911583900463 8.5000000000000018 26.500000000000004 35.607143402099616 8.5000000000000018 1.0000000180025095e-35 2.5000000000000004 8.5000000000000018 0.22275791317224505 107.50000000000001
decision_type=2 2 2 2 2 2 2 2 2 2 2 2 2 2 2 2 2 2 2 2 2 2 2 2 2 2 2 2 2 2
left_child=2 4 5 7 12 20 17 22 11 23 19 -5 -2 21 -10 -16 -15 -4 -7 -9 -1 -8 -3 -6 25 -25 -13 29 -11 -28
right_child=1 3 6 8 9 18 13 10 14 28 -12 26 -14 16 15 -17 -18 -19 -20 -21 -22 -23 -24 24 -26 -27 27 -29 -30 -31
leaf_value=-0.033874198697492135 0.19219699643166488 0.59294140258417061 0.03315037262460397 1.1304520588833085 0.38746412958670273 -0.005852840620842026 0.10101465156702447 0.92667690538095415 1.9488685331025788 0.36402346430332766 3.8894353578488028 0.97400987951379081 0.28980943178949325 0.50653794289850673 1.9284816394346516 3.5201380687725696 3.1318558294432504 0.075807122538531738 0.018676766183667003 1.3010153341315707 -0.020920935398726217 0.16548027204405358 0.82470405832049498 2.6535106629044263 -0.16450422183956417 0.85906111422039211 2.1112453227717651 1.6212580361554145 0.63552782282775233 3.5245728754489978
leaf_weight=1792505 59937 4192 221113 617 21600 688167 113043 1616 172 1380 36 114 34295 872 82 237 21 105320 289434 1865 1142550 37268 4094 67 70 63 547 486 8175 47
leaf_count=1792505 59937 4192 221113 617 21600 688167 113043 1616 172 1380 36 114 34295 872 82 237 21 105320 289434 1865 1142550 37268 4094 67 70 63 547 486 8175 47
internal_value=1.74901e-05 0.357333 -0.0113517 1.00464 0.284632 -0.0212758 0.0699434 0.840962 1.84386 0.455666 1.15551 1.61069 0.227722 0.119663 2.7039 3.111 0.568276 0.0469131 0.00140953 1.12723 -0.0288318 0.116998 0.707452 0.394019 1.10195 1.78389 1.85886 1.95226 0.596315 2.22307
internal_weight=4.52998e+06 139692 4.39029e+06 14105 125587 3.91266e+06 477637 11803 2302 31355 3517 1811 94232 151204 491 319 893 326433 977601 3481 2.93506e+06 150311 8286 21800 200 130 1194 1080 9555 594
internal_count=4529985 139692 4390293 14105 125587 3912656 477637 11803 2302 31355 3517 1811 94232 151204 491 319 893 326433 977601 3481 2935055 150311 8286 21800 200 130 1194 1080 9555 594
is_linear=0
shrinkage=0.06


Tree=13
num_leaves=31
num_cat=0
split_feature=15 14 15 11 14 20 14 5 5 5 29 3 5 21 11 23 8 5 23 23 5 5 8 14 8 1 8 8 8 8
split_gain=4.58708e+06 1.38562e+06 1.19619e+06 292919 258915 245525 213144 148490 97245.4 78170.1 76741 103784 57340.8 56096.6 55736.3 52351.2 50404.8 46906.4 45485.7 48854.8 46834.9 44931.4 40798 40207.2 38050.8 32922.2 38612.4 30364 26558.7 26254.7
threshold=10.910714626312258 2.9642857313156132 35.607143402099616 95.500000000000014 20.178570747375492 1.227546274662018 6.1785714626312265 1.0000000180025095e-35 1.0000000180025095e-35 1.0000000180025095e-35 724.50000000000011 2013.5000000000002 1.0000000180025095e-35 1.4750000238418581 2.5000000000000004 0.4463536143302918 48.500000000000007 1.0000000180025095e-35 0.48177790641784674 0.35065016150474554 1.0000000180025095e-35 1.0000000180025095e-35 24.500000000000004 0.32142858207225805 40.500000000000007 5.5000000000000009 26.500000000000004 20.500000000000004 13.500000000000002 36.500000000000007
decision_type=2 2 2 2 2 2 2 2 2 2 2 2 2 2 2 2 2 2 2 2 2 2 2 2 2 2 2 2 2 2
left_child=1 5 4 7 9 23 21 10 -6 -2 11 25 -8 -12 -9 24 22 -7 19 -5 -21 -3 27 -1 -16 26 -4 -13 -15 -30
right_child=2 6 3 18 8 17 12 14 -10 -11 13 16 -14 28 15 -17 -18 -19 -20 20 -22 -23 -24 -25 -26 -27 -28 -29 29 -31
leaf_value=-0.031376944086638034 0.2761064364754921 0.056837082988391234 1.8850024116039275 1.4746525935239569 0.50466171888473288 9.273019145254532e-05 0.14284056256733918 4.4734022283554076 0.82054239513052429 0.44444539135684275 0.43945600691441578 0.80543214328737067 0.23766361254802948 0.58898655220723706 1.1780259113476887 1.7394508101880759 -1.2128557536476536 0.029440615208785024 2.1392966459926805 2.8536445190258077 4.9179752916608539 0.11014916167496946 1.75070915259813 -0.017178122622058957 -0.55387959719532065 2.0501730904695092 5.1138323974609374 -1.2867704696655273 1.2136770023867733 0.81166509766715844
leaf_weight=1980101 34588 198874 24 43 12084 684814 80189 24 4944 13930 965 149 32168 549 296 1272 38 274701 342 91 70 79727 171 1126371 54 259 30 30 1446 982
leaf_count=1980101 34588 198874 24 43 12084 684814 80189 24 4944 13930 965 149 32168 549 296 1272 38 274701 342 91 70 79727 171 1126371 54 259 30 30 1446 982
internal_value=3.41779e-05 -0.00766061 0.47385 1.22919 0.395084 -0.0180344 0.100227 1.11346 0.596376 0.324438 0.939866 1.51832 0.169989 0.837002 1.60312 1.56065 0.862601 0.00849478 2.56225 3.27132 3.75118 0.0720934 1.08794 -0.0262286 0.910818 2.33115 3.6788 0.454784 0.965867 1.05108
internal_weight=4.52933e+06 4.45694e+06 72381 6835 65546 4.06599e+06 390958 6289 17028 48518 4643 701 112357 3942 1646 1622 388 959515 546 204 161 278601 350 3.10647e+06 350 313 54 179 2977 2428
internal_count=4529326 4456945 72381 6835 65546 4065987 390958 6289 17028 48518 4643 701 112357 3942 1646 1622 388 959515 546 204 161 278601 350 3106472 350 313 54 179 2977 2428
is_linear=0
shrinkage=0.06


Tree=14
num_leaves=31
num_cat=0
split_feature=16 16 14 9 14 14 29 23 9 14 3 28 5 5 11 9 5 5 29 13 3 13 11 5 9 5 3 9 5 13
split_gain=4.03274e+06 1.4633e+06 773029 511158 241923 161072 151334 165893 112405 112237 71331.4 83100.5 69941 66648.4 66036.6 53570 47800.6 46172.8 43621.1 81722.8 87555.6 42598.9 39936.7 38185.5 37572.6 36919.7 32591.4 28713.4 28576.5 25794.2
threshold=7.3482143878936776 24.375000000000004 1.964285731315613 59.500000000000007 15.035714149475099 4.1071429252624521 724.50000000000011 0.39872792363166815 32.500000000000007 0.67857143282890331 2013.5000000000002 24.500000000000004 1.0000000180025095e-35 1.0000000180025095e-35 10.500000000000002 100.50000000000001 1.0000000180025095e-35 1.0000000180025095e-35 872.50000000000011 1.0000000180025095e-35 2012.5000000000002 17.214285850524906 34.500000000000007 1.0000000180025095e-35 57.500000000000007 1.0000000180025095e-35 2011.5000000000002 10.500000000000002 1.0000000180025095e-35 72.357143402099624
decision_type=2 2 2 2 2 2 2 2 2 2 2 2 2 2 2 2 2 2 2 2 2 2 2 2 2 2 2 2 2 2
left_child=2 4 9 8 13 25 7 15 18 -1 17 14 -6 -2 -12 -5 -8 26 19 20 -3 23 -10 -7 -23 -4 -9 -20 -11 -21
right_child=1 3 5 6 12 21 16 10 22 28 11 -13 -14 -15 -16 -17 -18 -19 27 29 -22 24 -24 -25 -26 -27 -28 -29 -30 -31
leaf_value=-0.026740752165863836 0.17467109124064359 -0.20490302104216354 0.021624356026469872 3.9526037680019033 0.34665430291661886 0.081030747153715277 0.83062194888668872 3.9328563707343167 0.75669356703341339 -0.010085084709857186 2.6330068418141956 2.4603556081773461 0.55709366283842032 0.28474388076250834 -0.30062701024046734 8.1892810058593746 1.6057060595705679 3.4547962422256009 0.16394733999480715 0.66953707317411515 2.6290953024923804 0.46712321552149116 1.0945325572880016 0.14243053215007043 3.0998602080345155 0.060725272261357717 1.9864699661255325 0.55515205544282109 0.01137610911573511 2.5719036285693826
leaf_weight=2691043 69138 52 304036 22 19837 127270 429 35 2158 780942 37 148 7970 27752 109 21 862 166 797 1955 160 804 3026 51107 20 121744 269 4428 312833 26
leaf_count=2691043 69138 52 304036 22 19837 127270 429 35 2158 780942 37 148 7970 27752 109 21 862 166 797 1955 160 804 3026 51107 20 121744 269 4428 312833 26
internal_value=1.79307e-06 0.317716 -0.0100871 0.883903 0.25097 0.0528894 1.75104 2.39557 0.739541 -0.0201536 2.19148 1.45845 0.40697 0.206199 0.442828 6.02168 1.34815 2.65001 0.58974 0.814325 1.93396 0.100611 0.953897 0.0986225 0.531025 0.0328045 2.21056 0.495479 -0.00394692 0.694505
internal_weight=4.5292e+06 139397 4.3898e+06 14700 124697 604981 2098 807 12602 3.78482e+06 764 294 27807 96890 146 43 1291 470 7418 2193 212 179201 5184 178377 824 425780 304 5225 1.09378e+06 1981
internal_count=4529196 139397 4389799 14700 124697 604981 2098 807 12602 3784818 764 294 27807 96890 146 43 1291 470 7418 2193 212 179201 5184 178377 824 425780 304 5225 1093775 1981
is_linear=0
shrinkage=0.06


Tree=15
num_leaves=31
num_cat=0
split_feature=14 13 14 9 13 15 14 10 29 3 11 9 12 2 2 12 12 3 23 21 29 9 14 11 13 23 8 8 11 17
split_gain=3.57751e+06 1.14629e+06 822444 347270 224063 145429 125907 113316 87638.1 109950 67912.4 67215.7 57742.3 44981.3 62574.1 43390.2 40631.7 45905.1 39626.8 39472.6 34933.1 33245.3 30501.6 29946.2 31502.8 28158.2 26918.1 35170.3 25800.8 24856.5
threshold=8.7500000000000018 29.642856597900394 2.4642857313156132 74.500000000000014 16.071428298950199 0.73214286565780651 4.6071429252624521 36.500000000000007 724.50000000000011 2013.5000000000002 19.500000000000004 24.500000000000004 43.500000000000007 11.500000000000002 6.5000000000000009 12.500000000000002 57.500000000000007 2012.5000000000002 0.51492139697074901 1.1999999880790713 872.50000000000011 7.5000000000000009 1.464285731315613 36.500000000000007 72.357143402099624 0.34451389312744146 37.500000000000007 10.500000000000002 74.500000000000014 19.053764343261722
decision_type=2 2 2 2 2 2 2 2 2 2 2 2 2 2 2 2 2 2 2 2 2 2 2 2 2 2 2 2 2 2
left_child=2 4 5 7 15 -1 -4 -3 9 10 -5 -6 -9 14 23 -2 22 -18 -10 -12 -19 -8 -7 -11 -25 -13 27 -14 -29 -27
right_child=1 3 6 8 11 16 21 12 18 13 19 25 26 -15 -16 -17 17 20 -20 -21 -22 -23 -24 24 -26 29 -28 28 -30 -31
leaf_value=-0.024821058081359555 0.18381750966577298 0.59978878411863701 0.044041192775879479 6.3595820617675782 0.35656139653070196 -0.0071587963945042975 0.09105083003270395 0.82661200488510522 0.65104672895467031 2.2234024772644041 4.6680612866083777 0.33374281543153966 0.76810080166212047 -1.4126389367239816 2.5535712007095936 0.28468448337655289 -0.44636321279135616 2.8955446251700905 1.6999004849638237 2.582983912019662 0.19318219693807454 0.14919969002583366 0.012708137866883551 0.87189989879213525 -2.0043171677222618 0.59105086106540328 0.94074142999618526 1.4246309001852244 2.2518044084955933 1.2781478003859521
leaf_weight=2755724 46251 4842 301656 20 19641 762697 112597 2705 188 20 36 1637 263 21 95 22982 44 51 418 355 26 51624 437954 29 26 6772 703 1003 157 195
leaf_count=2755724 46251 4842 301656 20 19641 762697 112597 2705 188 20 36 1637 263 21 95 22982 44 51 418 355 26 51624 437954 29 26 6772 703 1003 157 195
internal_value=-3.1533e-06 0.340603 -0.00834885 0.924701 0.275403 -0.0172277 0.0670555 0.804916 1.88388 2.39662 2.94939 0.417822 1.01051 1.20715 1.53077 0.2173 0.000198741 1.09963 1.37451 2.77496 1.98306 0.10933 8.79417e-05 0.235212 -0.487766 0.557668 1.24449 1.39455 1.53658 0.610282
internal_weight=4.53073e+06 108359 4.42237e+06 10881 97478 3.9565e+06 465877 9673 1208 602 411 28245 4831 191 170 69233 1.20077e+06 121 606 391 77 164221 1.20065e+06 75 55 8604 2126 1423 1160 6967
internal_count=4530732 108359 4422373 10881 97478 3956496 465877 9673 1208 602 411 28245 4831 191 170 69233 1200772 121 606 391 77 164221 1200651 75 55 8604 2126 1423 1160 6967
is_linear=0
shrinkage=0.06


Tree=16
num_leaves=31
num_cat=0
split_feature=16 16 9 11 15 16 16 10 9 21 5 1 9 5 11 15 5 5 11 3 3 11 29 9 12 8 29 29 28 21
split_gain=3.16271e+06 949331 861655 209454 192893 181090 120418 63139.8 62562.7 51495.5 43140.8 42693.5 39650.9 39283.2 38892.9 36828 35806.9 34072.9 28424.6 25362.3 24891.1 23230.4 23364.5 22529 22460.8 22176.5 30087.6 20916.9 20373.6 29369.8
threshold=10.419642925262453 3.1665641069412236 38.500000000000007 60.500000000000007 1.2321428656578066 17.741071701049808 6.4017856121063241 28.500000000000004 94.500000000000014 1.1999999880790713 1.0000000180025095e-35 29.500000000000004 100.50000000000001 1.0000000180025095e-35 14.500000000000002 0.37500000000000006 1.0000000180025095e-35 1.0000000180025095e-35 32.500000000000007 2013.5000000000002 2014.5000000000002 1.0000000180025095e-35 797.50000000000011 17.500000000000004 2.5000000000000004 40.500000000000007 872.50000000000011 724.50000000000011 -6.4999999999999991 1.3000000119209292
decision_type=2 2 2 2 2 2 2 2 2 2 2 2 2 2 2 2 2 2 2 2 2 2 2 2 2 2 2 2 2 2
left_child=1 4 5 9 15 10 16 23 25 -4 -2 20 18 -6 19 -1 -3 -8 21 -14 27 22 24 -7 -11 26 28 -10 -5 -30
right_child=2 6 3 8 13 7 17 -9 11 12 -12 -13 14 -15 -16 -17 -18 -19 -20 -21 -22 -23 -24 -25 -26 -27 -28 -29 29 -31
leaf_value=-0.025666141782535391 0.21185043748750915 0.052860522665191124 0.55629310448694624 1.4424445393537322 0.0039019317252757188 0.31859544942923085 0.123903345618747 0.61330782887945767 2.4319143803978478 2.547329843044281 0.34031533313576584 4.4784886070660184 5.0469344229698185 0.033919000324092383 1.1200281668305396 -0.01261129357396476 0.10302264207263614 0.20362532727506491 1.0463726259727484 2.1254673348302426 0.18122756481170654 0.61869690093195995 0.57520936438677506 0.45909447208355864 0.68577632004874089 0.91571348924960116 1.1728508484445497 1.3799783799648284 3.6764263171102938 1.9266818237876238
leaf_weight=2108196 33222 178828 1788 248 548112 7863 67449 6463 279 70 13130 28 20 219933 60 1232844 71797 27036 2289 23 24 1294 82 8605 35 295 491 90 41 219
leaf_count=2108196 33222 178828 1788 248 548112 7863 67449 6463 279 70 13130 28 20 219933 60 1232844 71797 27036 2289 23 24 1294 82 8605 35 295 491 90 41 219
internal_value=-1.20851e-05 -0.00658848 0.382103 0.998612 -0.014616 0.316468 0.088992 0.454382 1.57951 0.822629 0.24824 2.21484 0.945585 0.0124974 2.10705 -0.0208489 0.0672306 0.146715 0.913852 3.48429 2.05357 0.709032 1.33413 0.39201 1.92681 1.3728 1.50778 2.17534 1.8315 2.2026
internal_weight=4.53085e+06 4.4542e+06 76659 7376 4.10908e+06 69283 345110 22931 1715 5661 46352 421 3873 768045 103 3.34104e+06 250625 94485 3770 43 393 1481 187 16468 105 1294 999 369 508 260
internal_count=4530854 4454195 76659 7376 4109085 69283 345110 22931 1715 5661 46352 421 3873 768045 103 3341040 250625 94485 3770 43 393 1481 187 16468 105 1294 999 369 508 260
is_linear=0
shrinkage=0.06


Tree=17
num_leaves=31
num_cat=0
split_feature=14 9 15 10 9 14 14 21 10 29 21 3 10 9 11 12 0 12 0 3 0 19 11 3 8 8 3 3 21 8
split_gain=2.86506e+06 853496 768643 208034 199492 180390 82313.9 76614.1 71209.5 48780.1 101203 56697.4 46052.1 50151.1 49988.1 44995.4 35633.6 39479.5 35320.7 33938.6 30403.5 28230.5 28148.2 27749.3 23587.5 23479.6 28787.3 22730.1 39709.5 27300.2
threshold=10.107142925262453 40.500000000000007 3.1964285373687749 73.500000000000014 20.500000000000004 1.1785714626312258 6.4642856121063241 0.98500001430511486 27.500000000000004 724.50000000000011 1.1999999880790713 2011.5000000000002 1.0000000180025095e-35 79.500000000000014 42.500000000000007 19.500000000000004 3.5000000000000004 75.000000000000014 4.5000000000000009 2013.5000000000002 3.5000000000000004 1.0000000180025095e-35 95.500000000000014 2013.5000000000002 36.500000000000007 10.500000000000002 2013.5000000000002 2013.5000000000002 1.5299999713897707 48.500000000000007
decision_type=2 2 2 2 2 2 2 2 2 2 2 2 2 2 2 2 2 2 2 2 2 2 2 2 2 2 2 2 2 2
left_child=2 4 5 7 15 21 16 -3 -6 10 -5 -12 13 -9 -14 -2 -4 -18 -7 -19 -8 -1 -17 -15 -11 26 -13 -16 29 -29
right_child=1 3 6 9 8 18 20 12 -10 24 11 25 14 23 27 22 17 19 -20 -21 -22 -23 -24 -25 -26 -27 -28 28 -30 -31
leaf_value=-0.027039803636024567 0.20595025422291907 0.25748005593091633 0.043370713521623909 5.4856577165665161 0.3732937805324707 0.0036586524366289215 0.10010542543423186 1.2697682760405329 0.61311089755580572 1.667097241089909 4.041927417488985 1.6135017025638634 0.7200114831505291 5.0972293169602105 1.2612334621718018 0.33514613728710252 0.08848097895818699 0.1511917554007636 0.031208568360594154 3.1072376329323341 0.17142090711085467 -0.015576249806933085 1.8225050935537919 2.0805428777422224 0.82771583744973842 1.9866129005159583 -0.60327675533294667 0.47816502229368779 1.1348782867571519 -1.4951389645252908
leaf_weight=1243373 46419 699 141629 31 14002 584315 50232 113 6539 308 43 71 2685 23 1336 10852 106353 27 234869 29 37652 2045857 46 21 198 372 30 256 646 28
leaf_count=1243373 46419 699 141629 31 14002 584315 50232 113 6539 308 43 71 2685 23 1336 10852 106353 27 234869 29 37652 2045857 46 21 198 372 30 256 646 28
internal_value=8.83235e-05 0.345733 -0.00650037 0.987318 0.289204 -0.0136353 0.0807622 0.846617 0.449637 1.76324 2.15601 1.95598 0.927237 1.93893 0.895156 0.231709 0.0630829 0.0893196 0.0115575 1.682 0.130659 -0.0199096 0.341424 3.65745 1.33864 1.76634 0.955053 1.10269 0.874922 0.283614
internal_weight=4.52905e+06 84718 4.44434e+06 6860 77858 4.10841e+06 335922 5807 20541 1053 547 516 5108 157 4951 57317 248038 106409 819184 56 87884 3.28923e+06 10898 44 506 473 101 2266 930 284
internal_count=4529054 84718 4444336 6860 77858 4108414 335922 5807 20541 1053 547 516 5108 157 4951 57317 248038 106409 819184 56 87884 3289230 10898 44 506 473 101 2266 930 284
is_linear=0
shrinkage=0.06


Tree=18
num_leaves=31
num_cat=0
split_feature=13 13 20 14 10 15 13 12 12 3 10 23 10 11 3 28 8 15 29 10 29 8 8 3 10 3 8 8 20 3
split_gain=2.51401e+06 832814 554524 233174 166758 98200.9 92051.9 62428.7 50184.4 56859.2 48541.8 45023.6 41690 35193.3 33601.1 57378.6 27614.2 27304.6 26791.4 24105.9 39572.9 23980.2 29074.4 97305.8 30660.6 25274 31002.4 23889.2 23125.3 30004.4
threshold=8.3571429252624529 34.785715103149421 2.0093531608581547 16.392857551574711 60.500000000000007 4.5535714626312265 0.78571429848670971 24.500000000000004 75.000000000000014 2013.5000000000002 92.500000000000014 0.34887267649173742 12.500000000000002 51.500000000000007 2013.5000000000002 24.500000000000004 19.500000000000004 35.607143402099616 724.50000000000011 1.0000000180025095e-35 724.50000000000011 12.500000000000002 39.500000000000007 2012.5000000000002 146.00000000000003 2012.5000000000002 31.500000000000004 40.500000000000007 11.88635301589966 2012.5000000000002
decision_type=2 2 2 2 2 2 2 2 2 2 2 2 2 2 2 2 2 2 2 2 2 2 2 2 2 2 2 2 2 2
left_child=2 3 6 12 11 28 -1 -5 17 -10 -6 -3 -2 19 18 16 -16 -7 21 20 -13 -12 25 -24 -25 -23 -27 -20 -4 -30
right_child=1 4 5 7 10 8 -8 -9 9 -11 14 13 -14 -15 15 -17 -18 -19 27 -21 -22 22 23 24 -26 26 -28 -29 29 -31
leaf_value=-0.021001035737908867 0.15135762590235793 0.17252806279771832 0.032170413027323819 0.31973751995287175 1.1536414263599668 0.087461069520826107 -0.00012332040802378374 0.51333803809021938 -0.13839494102531008 2.4780408337245237 1.4490905710413484 2.9772140207955999 0.24360284690196177 1.0555905240636396 0.57489259274800619 2.1796007035119191 -2.0189129343899812 1.281284189638884 1.7414040711759464 0.65593876349952029 0.68273912084429222 2.4218674945397809 3.2661677288068458 -1.9817123365402221 1.1991698598861693 3.1103800035516422 5.9304472633030096 -0.24512373182508679 -0.093149677868235733 0.56758693625083645
leaf_weight=2815052 57971 511 395518 19647 1378 157249 1041575 8630 54 67 79 43 25351 1152 45 70 22 69 113 4016 73 55 80 20 24 36 23 27 401 646
leaf_count=2815052 57971 511 395518 19647 1378 157249 1041575 8630 54 67 79 43 25351 1152 45 70 22 69 113 4016 73 55 80 20 24 36 23 27 401 646
internal_value=5.39934e-05 0.271758 -0.00729919 0.229948 0.8725 0.0488325 -0.0153625 0.378823 0.0889242 1.31038 1.34909 0.710321 0.179424 0.76233 1.80249 0.978293 -0.276805 0.0879847 2.04957 0.680569 1.53328 2.35487 2.65553 2.01967 -0.246686 3.34716 4.20973 1.35829 0.0329159 0.314525
internal_weight=4.53e+06 119366 4.41063e+06 111599 7767 554004 3.85663e+06 28277 157439 121 1972 5795 83322 5284 594 137 67 157318 457 4132 116 317 238 124 44 114 59 140 396565 1047
internal_count=4529997 119366 4410631 111599 7767 554004 3856627 28277 157439 121 1972 5795 83322 5284 594 137 67 157318 457 4132 116 317 238 124 44 114 59 140 396565 1047
is_linear=0
shrinkage=0.06


Tree=19
num_leaves=31
num_cat=0
split_feature=16 13 9 16 9 9 13 29 21 10 12 0 12 29 8 0 0 13 13 29 10 8 8 29 21 10 16 16 24 0
split_gain=2.24027e+06 763022 591241 154452 149761 131885 113200 65194 69876.4 51210.5 51174.5 41369.2 36106.4 58175.3 35613.4 34668.8 31704.5 28584 25842.7 23493.6 22227.7 21305.4 35670.2 23215.1 30648.8 18369.3 18215.4 17377.8 16985.4 16432.1
threshold=11.866071224212648 3.3571429252624516 43.500000000000007 1.2529069781303408 92.500000000000014 20.500000000000004 7.357142686843873 724.50000000000011 1.1999999880790713 49.500000000000007 23.500000000000004 3.5000000000000004 62.500000000000007 724.50000000000011 40.500000000000007 3.5000000000000004 3.5000000000000004 0.35714286565780645 22.642856597900394 698.50000000000011 37.500000000000007 11.500000000000002 37.500000000000007 872.50000000000011 1.3000000119209292 15.500000000000002 2.2004870176315312 4.5982143878936776 0.2205837741494179 3.5000000000000004
decision_type=2 2 2 2 2 2 2 2 2 2 2 2 2 2 2 2 2 2 2 2 2 2 2 2 2 2 2 2 2 2
left_child=1 3 5 17 9 12 15 8 -6 28 -7 -8 25 19 -9 -3 -5 -1 -13 -14 -12 -11 23 24 -23 -2 -18 -17 -4 -21
right_child=2 6 4 16 7 10 11 14 -10 21 20 18 13 -15 -16 27 26 -19 -20 29 -22 22 -24 -25 -26 -27 -28 -29 -30 -31
leaf_value=-0.021746721491615186 0.19682301104710112 0.041614870526686901 0.2448329196911152 0.0017348190356978503 4.9864785188244234 0.34078377798780096 0.1037831882413454 1.2623253877107807 2.0297913876222329 0.58391335149895063 0.48553814578429927 0.18234905374530314 0.059780995923539866 0.26175093143070038 -1.0096926051994848 0.065975368432483972 0.016460944671973465 -0.01021660425718863 0.71013874575274627 1.1821787890791893 0.70677041209309188 3.2124590450379906 0.78216899679271412 1.0918614881182902 1.5060626765057443 0.28301984819078779 0.046565471304938801 0.11412033845131886 0.72854353554703988 2.6915769336674664
leaf_weight=2158471 21554 148077 292 432860 31 9627 50044 173 401 275 6357 37246 23 242 29 65061 216325 1206785 337 40 2201 41 610 593 500 15161 108722 46123 2489 74
leaf_count=2158471 21554 148077 292 432860 31 9627 50044 173 401 275 6357 37246 23 242 29 65061 216325 1206785 337 40 2201 41 610 593 500 15161 108722 46123 2489 74
internal_value=6.24294e-06 -0.00491076 0.362025 -0.012101 0.959216 0.303321 0.0805534 1.82591 2.24196 0.84474 0.435683 0.13951 0.238431 0.821062 0.936145 0.0606269 0.012369 -0.017612 0.187082 1.80904 0.542436 1.07475 1.15214 1.35116 1.63538 0.232417 0.0265303 0.0859476 0.677755 2.16196
internal_weight=4.53076e+06 4.47005e+06 60713 4.12316e+06 5434 55279 346888 634 432 4800 18185 87627 37094 379 202 259261 757907 3.36526e+06 37583 137 8558 2019 1744 1134 541 36715 325047 111184 2781 114
internal_count=4530764 4470051 60713 4123163 5434 55279 346888 634 432 4800 18185 87627 37094 379 202 259261 757907 3365256 37583 137 8558 2019 1744 1134 541 36715 325047 111184 2781 114
is_linear=0
shrinkage=0.06


Tree=20
num_leaves=31
num_cat=0
split_feature=13 20 10 13 12 9 9 23 9 9 12 21 12 10 0 20 8 9 1 18 12 13 21 12 10 9 8 21 23 8
split_gain=1.99882e+06 661372 518603 138914 132723 113231 94203.9 50883.5 50368.8 39130.9 34062.3 35125.3 30804.5 30803.4 30336.1 27227.8 26648.7 26216.9 22915.2 22099.1 21908.9 24447.2 21530.2 20663.3 20845.8 20239.4 20234.4 19951.6 18429.6 18017.8
threshold=12.500000000000002 2.7264635562896733 43.500000000000007 1.214285731315613 79.500000000000014 25.500000000000004 6.5000000000000009 0.34451389312744146 49.500000000000007 79.500000000000014 75.000000000000014 1.3000000119209292 11.500000000000002 14.500000000000002 4.5000000000000009 6.7098855972290048 10.500000000000002 124.50000000000001 28.500000000000004 1.0000000180025095e-35 1.0000000180025095e-35 53.428571701049812 1.5299999713897707 23.500000000000004 1.0000000180025095e-35 71.500000000000014 41.500000000000007 1.7549999952316286 0.51492139697074901 36.500000000000007
decision_type=2 2 2 2 2 2 2 2 2 2 2 2 2 2 2 2 2 2 2 2 2 2 2 2 2 2 2 2 2 2
left_child=1 3 5 19 8 13 10 -7 -4 26 15 -12 -8 -2 -5 -3 -10 23 -11 -1 21 -18 -13 24 25 -9 -6 28 29 -25
right_child=2 6 4 14 9 7 12 17 16 18 11 22 -14 -15 -16 -17 20 -19 -20 -21 -22 -23 -24 27 -26 -27 -28 -29 -30 -31
leaf_value=-0.022753023690237205 0.18511991504598635 0.044596793656081171 0.61498863291279937 0.0031811413149736623 1.4388518871801705 0.19527566384268233 0.10344978937325021 0.75844353945422982 0.41558084771197673 1.8862371548985915 -0.14582305351958463 2.4518823191949299 0.18169554925147671 0.28759995575161601 0.028563218516245433 0.10378147813895545 0.78009738352149727 2.2902693641596823 3.4159528755683164 -0.012794903029445028 1.0387110288265067 2.4889221774207222 0.33423637132644651 0.6124163538627605 0.3690595185342444 2.7383766367435451 0.42007357827209413 0.41141592984094372 0.75254845758124911 0.1738830995308692
leaf_weight=1396556 21092 212935 2749 591897 277 2622 88627 263 232 367 57 56 22766 21144 237546 32217 48 29 39 1885322 1523 81 25 1201 5006 20 94 2115 2242 469
leaf_count=1396556 21092 212935 2749 591897 277 2622 88627 263 232 367 57 56 22766 21144 237546 32217 48 29 39 1885322 1523 81 25 1201 5006 20 94 2115 2242 469
internal_value=-8.09535e-06 -0.00468853 0.339404 -0.0114879 0.90047 0.285397 0.0736845 0.433493 0.778766 1.62615 0.0529051 0.995286 0.119441 0.236423 0.0104504 0.0523746 1.01774 0.488549 2.03318 -0.0170324 1.1023 1.85308 1.79829 0.483932 0.397381 0.898368 1.18072 0.559884 0.640153 0.489259
internal_weight=4.52962e+06 4.468e+06 61613 4.11132e+06 5410 56203 356683 13967 4633 777 245290 138 111393 42236 829443 245152 1884 11345 406 3.28188e+06 1652 129 81 11316 5289 283 371 6027 3912 1670
internal_count=4529617 4468004 61613 4111321 5410 56203 356683 13967 4633 777 245290 138 111393 42236 829443 245152 1884 11345 406 3281878 1652 129 81 11316 5289 283 371 6027 3912 1670
is_linear=0
shrinkage=0.06


Tree=21
num_leaves=31
num_cat=0
split_feature=16 9 14 16 14 20 9 0 23 0 21 0 3 3 8 8 16 23 0 16 29 0 29 21 8 28 8 8 9 23
split_gain=1.78328e+06 601498 375207 155954 132050 68323.9 66590.5 64118.4 61432.4 43573.9 40072.1 36512.4 32666.2 32235.4 51142 34835.2 28384.2 28009.7 27281 26281.9 25900.5 25897.1 25189.8 61297.6 24763.6 23780.4 28714.7 44776.1 23170.5 26098.8
threshold=7.8660714626312265 35.500000000000007 2.3214286565780644 14.080357074737551 49.607143402099616 0.91674408316612255 6.5000000000000009 4.5000000000000009 0.50499892234802257 3.5000000000000004 1.7549999952316286 3.5000000000000004 2013.5000000000002 2012.5000000000002 49.500000000000007 11.500000000000002 24.375000000000004 0.34451389312744146 3.5000000000000004 4.0089285373687753 724.50000000000011 4.5000000000000009 724.50000000000011 1.3000000119209292 45.500000000000007 25.500000000000004 19.500000000000004 11.500000000000002 31.500000000000004 0.34451389312744146
decision_type=2 2 2 2 2 2 2 2 2 2 2 2 2 2 2 2 2 2 2 2 2 2 2 2 2 2 2 2 2 2
left_child=2 3 5 11 8 -1 19 13 -3 16 18 -2 20 24 15 -15 -5 -11 -10 -4 -9 -7 23 -17 -6 26 27 -14 -8 -30
right_child=1 4 6 9 7 21 28 12 10 17 -12 -13 25 14 -16 22 -18 -19 -20 -21 -22 -23 -24 -25 -26 -27 -28 -29 29 -31
leaf_value=-0.018295099266824402 0.10377259334455172 0.35287048683032274 0.021654905565921947 0.19760498624247136 1.0688796513281158 -0.0068932683761611727 0.084976038423070735 2.4130189494634493 0.56373238340969412 0.18090046535097418 0.5093905362908332 0.18660719692851679 -0.21643446670337158 -0.092730827966293727 -1.7376776079977712 3.7312972086126153 0.35276713802480025 0.40930797974868199 1.0385988985225376 0.054928916137314453 1.5009460520992677 0.011410639494187977 0.60304304064222325 1.0191563177596439 2.2271277181412041 1.4552324750536196 -1.33427599150559 3.0053514635562895 0.13247184710993418 0.83571835704907105
leaf_weight=2551367 44817 3000 271142 16611 529 971170 96056 174 624 2311 1826 33458 44 154 31 33 5701 11811 1442 124787 315 390023 479 330 76 148 29 24 481 314
leaf_count=2551367 44817 3000 271142 16611 529 971170 96056 174 624 2311 1826 33458 44 154 31 33 5701 11811 1442 124787 315 390023 479 330 76 148 29 24 481 314
internal_value=2.60843e-05 0.224457 -0.00628943 0.18691 0.689674 -0.0125037 0.0430508 1.07642 0.556905 0.289453 0.714177 0.13918 1.54216 0.86695 0.662282 0.736979 0.237251 0.37193 0.895174 0.032142 1.82549 -0.00164864 0.888732 1.26571 1.21438 0.976676 0.246508 0.920666 0.0876459 0.410232
internal_weight=4.52931e+06 123967 4.40534e+06 114709 9258 3.91256e+06 492780 2366 6892 36434 3892 78275 734 1632 1027 996 22312 14122 2066 395929 489 1.36119e+06 842 363 605 245 97 68 96851 795
internal_count=4529307 123967 4405340 114709 9258 3912560 492780 2366 6892 36434 3892 78275 734 1632 1027 996 22312 14122 2066 395929 489 1361193 842 363 605 245 97 68 96851 795
is_linear=0
shrinkage=0.06


Tree=22
num_leaves=31
num_cat=0
split_feature=13 13 20 10 12 13 13 0 12 12 3 29 8 29 8 8 0 13 8 10 8 12 29 0 0 0 29 8 8 3
split_gain=1.57528e+06 456595 436348 132385 110051 90342.7 63765.2 43099.1 43062.5 38504.6 38063.4 36035.9 32182.7 35151.9 42725.8 30744.7 41567.3 53865.2 54375 34080.4 30485.2 27023.9 26011.6 25830.4 25523.2 21687.1 21526.7 20699 22493.8 30892.9
threshold=10.357142925262453 39.642858505249031 2.445476889610291 20.500000000000004 79.500000000000014 1.214285731315613 6.0714285373687753 4.5000000000000009 25.500000000000004 57.500000000000007 2013.5000000000002 872.50000000000011 12.500000000000002 724.50000000000011 49.500000000000007 40.500000000000007 4.5000000000000009 72.357143402099624 33.500000000000007 100.00000000000001 35.500000000000007 14.500000000000002 872.50000000000011 3.5000000000000004 3.5000000000000004 3.5000000000000004 674.50000000000011 25.500000000000004 20.500000000000004 2013.5000000000002
decision_type=2 2 2 2 2 2 2 2 2 2 2 2 2 2 2 2 2 2 2 2 2 2 2 2 2 2 2 2 2 2
left_child=2 3 5 21 7 -1 9 12 -5 24 -11 -12 -3 14 27 16 -6 -18 -19 -17 -15 -2 26 -8 -4 -7 -9 28 -14 -30
right_child=1 4 6 8 15 25 23 22 -10 10 11 -13 13 20 -16 19 17 18 -20 -21 -22 -23 -24 -25 -26 -27 -28 -29 29 -31
leaf_value=-0.015195910237225075 0.143969846772453 0.14094066621124179 0.024463241643849814 0.28588474189994362 1.0874772903657279 -0.0010416834499877021 0.068565276356664928 -0.30026744980078479 0.46607908053050329 -0.050300848417811919 2.1937211127219527 0.17240371397137641 1.2259266693657691 0.73201100240203065 -0.7999098792442908 0.26241576138664696 1.4612305867548525 2.2863535740712417 4.9597321910124554 1.7052715184360454 0.31882218802729234 0.23159632603767433 0.78163232816420047 0.12841271218521194 0.059606516118898258 0.019385822152536838 1.4826583721646871 1.5660785586161901 1.0839991292460212 -1.7642408576378454
leaf_weight=3271536 38634 530 173665 13715 223 436121 60725 26 7324 108 87 50 109 1535 39 136 169 92 39 104 1106 18853 759 45352 130153 327675 391 298 29 26
leaf_count=3271536 38634 530 173665 13715 223 436121 60725 26 7324 108 87 50 109 1535 39 136 169 92 39 104 1106 18853 759 45352 130153 327675 391 298 29 26
internal_value=2.59733e-06 0.257199 -0.00486522 0.219837 0.780089 -0.0108581 0.0540982 0.674672 0.348613 0.0401246 0.792006 1.45601 0.573431 0.646385 1.10716 1.44989 1.7079 2.16907 3.08224 0.887653 0.558975 0.172707 0.990792 0.0941524 0.0395183 0.00772189 1.37149 1.26815 0.726779 -0.262442
internal_weight=4.52961e+06 84137 4.44547e+06 78526 5611 4.03533e+06 410140 4848 21039 304063 245 137 3672 3142 501 763 523 300 131 240 2641 57487 1176 106077 303818 763796 417 462 164 55
internal_count=4529609 84137 4445472 78526 5611 4035332 410140 4848 21039 304063 245 137 3672 3142 501 763 523 300 131 240 2641 57487 1176 106077 303818 763796 417 462 164 55
is_linear=0
shrinkage=0.06


Tree=23
num_leaves=31
num_cat=0
split_feature=16 16 9 10 20 16 9 0 9 8 12 21 11 3 28 8 8 10 9 18 10 0 13 16 24 10 13 24 2 21
split_gain=1.43358e+06 472621 372770 95600.6 95040.2 83724.9 69457.2 41680.4 39145.1 37949 37722.7 34954.5 31318.8 29795.5 45059.1 27866.8 36175.2 25786.7 23598 23383.3 22373.9 22071.4 27610.8 21921.1 19695.1 18841.2 18818.7 18696.3 19508.9 17609.9
threshold=11.866071224212648 3.2946429252624516 41.500000000000007 73.500000000000014 1.3196195960044863 24.375000000000004 8.5000000000000018 3.5000000000000004 183.50000000000003 34.500000000000007 47.500000000000007 1.0299999713897707 46.500000000000007 2013.5000000000002 24.500000000000004 19.500000000000004 11.500000000000002 11.500000000000002 3.5000000000000004 6.0737228393554696 1.0000000180025095e-35 3.5000000000000004 58.642858505249031 6.4017856121063241 1.1157146096229555 84.000000000000014 0.21428572386503222 0.22275791317224505 3.5000000000000004 1.1999999880790713
decision_type=2 2 2 2 2 2 2 2 2 2 2 2 2 2 2 2 2 2 2 2 2 2 2 2 2 2 2 2 2 2
left_child=1 4 5 8 26 7 23 -2 12 10 27 -11 20 21 15 16 -15 -8 -6 -20 -4 -5 -23 -3 -13 -17 -1 -7 -29 -24
right_child=2 6 3 13 18 9 17 -9 -10 11 -12 24 -14 14 -16 25 -18 -19 19 -21 -22 22 29 -25 -26 -27 -28 28 -30 -31
leaf_value=-0.018284298025322242 0.15554788789142754 0.039780571672591997 1.2640364396671644 0.92799240845016062 0.0033874382363050294 0.0062788494182094718 0.094682300730125596 0.27284382844797045 3.1505266323956578 -0.076022605781546224 0.8510463239228806 0.38184919717758203 0.80793499100153632 -0.24648182953521611 1.4037078912530625 0.19310976635326038 2.3052887783050533 0.17631230125072855 0.026437664354344356 0.22008178756542676 0.46273432378099877 1.0649717565272983 3.0979527798988098 0.079662006324293516 -0.5258661259961932 -2.1186074371337891 -0.0090436817234827351 0.29951462070795604 0.54423112492829218 1.8044886292746074
leaf_weight=1851065 25830 202827 131 210 734159 355 55820 18876 22 924 878 2598 1868 60 175 22 30 18565 150103 2279 2958 190 43 65684 89 30 1388557 1827 3275 319
leaf_count=1851065 25830 202827 131 210 734159 355 55820 18876 22 924 878 2598 1868 60 175 22 30 18565 150103 2279 2958 190 43 65684 89 30 1388557 1827 3275 319
internal_value=-1.11558e-06 -0.00393522 0.289601 0.736162 -0.00956003 0.240101 0.0637496 0.205073 0.625204 0.397548 0.486033 0.242314 0.613996 1.24817 0.759334 -0.0347891 0.604108 0.115056 0.00784719 0.0293338 0.496716 1.45153 1.6507 0.0495365 0.351783 -1.14057 -0.0143236 0.427304 0.456599 1.95813
internal_weight=4.52977e+06 4.46906e+06 60710 6058 4.12616e+06 54652 342896 44706 4979 9946 6335 3611 4957 1079 317 142 90 74385 886541 152382 3089 762 552 268511 2687 52 3.23962e+06 5457 5102 362
internal_count=4529769 4469059 60710 6058 4126163 54652 342896 44706 4979 9946 6335 3611 4957 1079 317 142 90 74385 886541 152382 3089 762 552 268511 2687 52 3239622 5457 5102 362
is_linear=0
shrinkage=0.06


Tree=24
num_leaves=31
num_cat=0
split_feature=13 13 13 9 0 15 13 12 23 23 12 11 11 8 12 21 0 13 9 0 9 13 21 23 8 12 11 21 19 0
split_gain=1.23022e+06 393823 334085 92607 91286.8 76354.4 54922.5 53536.8 47035.4 39129.8 45427.2 33109.9 28595.9 25697.3 22696.9 25471.5 22399.3 21266 20738 19985.1 19056.7 20690.8 27697.8 39526.4 25758.7 18866.1 22745.5 18741.6 18330.3 16485.6
threshold=11.928571224212648 3.2142857313156132 42.500000000000007 24.500000000000004 4.5000000000000009 1.3750000000000002 72.357143402099624 8.5000000000000018 0.34451389312744146 0.48177790641784674 101.50000000000001 41.500000000000007 121.50000000000001 10.500000000000002 58.500000000000007 1.3000000119209292 3.5000000000000004 6.0714285373687753 86.000000000000014 4.5000000000000009 183.50000000000003 58.642858505249031 1.3000000119209292 0.35065016150474554 41.500000000000007 4.5000000000000009 57.500000000000007 1.1999999880790713 1.0000000180025095e-35 3.5000000000000004
decision_type=2 2 2 2 2 2 2 2 2 2 2 2 2 2 2 2 2 2 2 2 2 2 2 2 2 2 2 2 2 2
left_child=1 5 3 16 13 28 -6 17 -5 10 -8 18 -12 -4 19 -16 -2 -3 -10 -7 21 -15 23 -23 -24 -25 -27 -28 -1 -17
right_child=2 7 4 8 6 14 9 -9 11 -11 12 -13 -14 20 15 29 -18 -19 -20 -21 -22 22 24 25 -26 26 27 -29 -30 -31
leaf_value=-0.018492955484900365 0.14424330863971127 0.03508040250273315 0.13216088842627777 0.13705408285912354 0.9777311645918052 0.0029421720444281364 4.7444898187030438 0.10428299050141893 0.35075405838389723 1.416450365427427 0.25364767443050035 0.62363786782570452 3.0636976186372338 0.503496061399899 -0.26759924261540657 0.4167603947691943 0.23107146298428957 0.071124583526336688 1.9574440637950239 0.026296152857020496 2.4394752475193568 0.33208192880858073 0.80584166303832072 3.6252612361907959 -0.12007268798653967 0.53080114948749546 3.7443524360656735 1.7516347372264003 -0.0093901194832594383 1.9264991594552994
leaf_weight=1244130 28994 211360 411 3128 1091 460420 33 67828 10550 164 22 1960 32 1851 61 46 16948 81708 29 184883 21 88 698 20 128 45 21 89 2212816 60
leaf_count=1244130 28994 211360 411 3128 1091 460420 33 67828 10550 164 22 1960 32 1851 61 46 16948 81708 29 184883 21 88 698 20 128 45 21 89 2212816 60
internal_value=-3.12414e-05 -0.00384291 0.256481 0.219232 0.743309 -0.00912912 1.16184 0.0562471 0.345201 1.96209 2.99065 0.397125 1.91886 0.57674 0.00981422 0.709206 0.176274 0.0451296 0.355158 0.00963322 0.63845 0.625585 0.833103 1.36936 0.662359 1.89096 1.66718 2.13206 -0.0126662 1.27133
internal_weight=4.52964e+06 4.46331e+06 66323 61609 4714 4.10242e+06 1342 360896 15667 251 87 12539 54 3372 645470 167 45942 293068 10579 645303 2961 2940 1089 263 826 175 155 110 3.45695e+06 106
internal_count=4529635 4463312 66323 61609 4714 4102416 1342 360896 15667 251 87 12539 54 3372 645470 167 45942 293068 10579 645303 2961 2940 1089 263 826 175 155 110 3456946 106
is_linear=0
shrinkage=0.06


Tree=25
num_leaves=31
num_cat=0
split_feature=13 20 13 0 12 13 13 23 15 10 0 1 23 0 29 21 8 28 0 21 12 29 12 15 29 29 0 18 10 12
split_gain=1.08197e+06 368862 279318 83761.8 80048.1 75186.3 67690.5 65405.3 56155.7 30957.8 29344.4 29222.4 28438.6 27266 25681 53830.2 34780.9 23118.3 23047.6 21943.3 20731.4 19322.3 20531.8 18412.5 18369.9 18250.5 18097.4 15992.7 15464.3 15831.3
threshold=12.500000000000002 2.6198233366012578 42.500000000000007 4.5000000000000009 25.500000000000004 1.5000000000000002 72.357143402099624 0.48177790641784674 7.0178570747375497 37.500000000000007 4.5000000000000009 20.500000000000004 0.34451389312744146 3.5000000000000004 724.50000000000011 1.3000000119209292 48.500000000000007 -6.4999999999999991 3.5000000000000004 1.4750000238418581 114.50000000000001 1246.5000000000002 2.5000000000000004 0.5892857313156129 1395.5000000000002 1395.5000000000002 3.5000000000000004 13.757913112640383 63.500000000000007 107.50000000000001
decision_type=2 2 2 2 2 2 2 2 2 2 2 2 2 2 2 2 2 2 2 2 2 2 2 2 2 2 2 2 2 2
left_child=1 5 4 14 12 23 21 11 18 -6 -10 20 -2 -14 15 17 -17 -4 -3 25 -8 22 -5 -1 -23 -16 -7 -15 -19 -30
right_child=2 8 3 6 9 26 7 -9 10 -11 -12 -13 13 27 19 16 -18 28 -20 -21 -22 24 -24 -25 -26 -27 -28 -29 29 -31
leaf_value=-0.014826470571109815 0.099550047619933052 0.025373462193620886 0.41100993016932869 2.0447011536732314 0.30119406254857267 0.0018076310118570239 3.5424260040636981 1.2428444849341003 0.072443724599912482 0.53656426450977501 0.14769003007365347 4.6707138356295497 0.16395178224925927 0.25845498208219592 -0.12282935210148389 0.64309673896532948 -1.2296702847982708 2.7669116730734986 0.059510496030623715 0.53763935744420066 1.3298990454673767 -0.1139229603111744 0.92848232521736307 -0.0051012749772654156 1.05123015209669 0.56631736089479789 0.022786799023467523 0.52628609009462202 1.1665519174021117 2.6691559923922314
leaf_weight=2510060 12385 165919 47 64 9096 344634 31 162 65338 2583 26115 33 20376 11295 388 590 38 53 124719 1926 30 120 812 972328 82 215 259480 864 98 34
leaf_count=2510060 12385 165919 47 64 9096 344634 31 162 65338 2583 26115 33 20376 11295 388 590 38 53 124719 1926 30 120 812 972328 82 215 259480 864 98 34
internal_value=-1.51128e-05 -0.00345018 0.250302 0.693592 0.213311 -0.00872134 1.09633 1.97338 0.0529253 0.35325 0.0939308 3.2324 0.176927 0.206382 0.535064 0.818299 0.529776 1.5993 0.0400224 0.438748 2.4543 0.888051 1.01003 -0.0121111 0.35906 0.122886 0.0108186 0.277487 1.90119 1.55359
internal_weight=4.52992e+06 4.46859e+06 61322 4723 56599 4.0865e+06 1334 256 382091 11679 91453 94 44920 32535 3389 860 628 232 290638 2529 61 1078 876 3.48239e+06 202 603 604114 12159 185 132
internal_count=4529915 4468593 61322 4723 56599 4086502 1334 256 382091 11679 91453 94 44920 32535 3389 860 628 232 290638 2529 61 1078 876 3482388 202 603 604114 12159 185 132
is_linear=0
shrinkage=0.06


Tree=26
num_leaves=31
num_cat=0
split_feature=9 16 10 10 16 9 14 16 12 12 29 28 21 1 8 8 9 12 21 1 8 1 0 1 0 21 8 21 29 12
split_gain=1.00732e+06 308363 285840 76945.7 72853.9 78795.3 63352.3 49315.9 34462.1 28881.1 30161.1 27563 25772.9 22599.3 21883.8 34904.1 23110.1 19746.4 21040.2 34473.2 24659.2 18956.8 17249.4 16752.8 16604.5 16127.4 22546.3 20870.1 25544.1 15547.1
threshold=12.500000000000002 3.2946429252624516 37.500000000000007 92.500000000000014 14.080357074737551 145.50000000000003 1.3214285373687746 6.4017856121063241 43.500000000000007 57.500000000000007 724.50000000000011 29.500000000000004 1.3000000119209292 11.500000000000002 36.500000000000007 31.500000000000004 92.500000000000014 79.500000000000014 1.3000000119209292 20.500000000000004 45.500000000000007 24.500000000000004 4.5000000000000009 11.500000000000002 3.5000000000000004 3.2999999523162846 41.500000000000007 1.0299999713897707 997.50000000000011 1.5000000000000002
decision_type=2 2 2 2 2 2 2 2 2 2 2 2 2 2 2 2 2 2 2 2 2 2 2 2 2 2 2 2 2 2
left_child=1 6 4 8 -2 13 -1 24 -4 23 11 12 -11 -6 15 -10 -17 29 19 -19 -20 -21 -8 -9 -3 27 -27 28 -16 -5
right_child=2 7 3 17 5 -7 22 9 14 10 -12 -13 -14 -15 25 16 -18 18 20 21 -22 -23 -24 -25 -26 26 -28 -29 -30 -31
leaf_value=-0.011532157775248991 0.12977786267228109 0.02187619837549392 0.4076764989449676 1.7902750105124252 0.32703107677582549 3.8468741863424123 0.0021831632886084892 0.11554870015504053 0.67044633815069199 -0.67995455651447689 0.20363932260198561 3.1105433571338654 1.3449405485449486 0.21164378226698738 1.8881448225975037 1.1763290136150388 2.7973253705160959 1.3680913081077428 1.3959236534891357 4.8198866659998885 -0.78629127911158969 2.4187459787829169 0.022744034949980389 0.065979801451519271 0.055060657605705055 0.53774224324659869 -1.284468384358016 0.67548746232988588 -0.416370487601258 0.63669404753615055
leaf_weight=3404432 41516 128714 4178 52 9731 22 512902 37603 1339 29 287 24 103 16424 20 332 35 78 166 20 21 29 205841 70686 93870 55 44 695 129 220
leaf_count=3404432 41516 128714 4178 52 9731 22 512902 37603 1339 29 287 24 103 16424 20 332 35 78 166 20 21 29 205841 70686 93870 55 44 695 129 220
internal_value=3.41147e-05 -0.00363992 0.217939 0.571651 0.179204 0.257593 -0.00811487 0.0520502 0.515017 0.0851703 0.56864 1.24015 0.900077 0.254574 0.684315 0.812529 1.33092 1.23145 1.55562 2.15159 1.15086 3.3988 0.0080716 0.0831924 0.035871 0.452359 -0.272129 0.53734 -0.10704 0.857232
internal_weight=4.5296e+06 4.45449e+06 75106 7413 67693 26177 4.12318e+06 331316 6827 108732 443 156 132 26155 2649 1706 367 586 314 127 187 49 718743 108289 222584 943 99 844 149 272
internal_count=4529597 4454491 75106 7413 67693 26177 4123175 331316 6827 108732 443 156 132 26155 2649 1706 367 586 314 127 187 49 718743 108289 222584 943 99 844 149 272
is_linear=0
shrinkage=0.06


Tree=27
num_leaves=31
num_cat=0
split_feature=9 10 20 9 10 14 11 15 8 8 3 8 9 9 10 11 21 10 21 24 5 24 8 9 11 11 5 3 8 8
split_gain=891203 261099 258839 71462.4 66273.9 62214.7 62095.3 39222 23329 34793.4 24434.4 27846.4 37645.3 19519.8 21460.3 19300 21459.5 19287.9 19182.9 19252.1 18658.7 17547.7 16254.2 15650.5 32405 15070.8 14606.2 14379.9 18611.8 17015.3
threshold=12.500000000000002 37.500000000000007 2.7264635562896733 124.50000000000001 17.500000000000004 1.1071428656578066 60.500000000000007 7.5535714626312265 11.500000000000002 36.500000000000007 2013.5000000000002 33.500000000000007 100.50000000000001 110.00000000000001 92.500000000000014 95.500000000000014 1.4900000095367434 92.500000000000014 1.1999999880790713 0.56086489558219921 1.0000000180025095e-35 0.2205837741494179 34.500000000000007 72.500000000000014 1.0000000180025095e-35 20.500000000000004 1.0000000180025095e-35 2012.5000000000002 42.500000000000007 45.500000000000007
decision_type=2 2 2 2 2 2 2 2 2 2 2 2 2 2 2 2 2 2 2 2 2 2 2 2 2 2 2 2 2 2
left_child=2 3 5 4 23 -1 13 26 -8 10 11 17 -13 21 -15 22 -17 -10 -11 27 -7 -3 -9 -2 -25 -6 -4 28 -20 -29
right_child=1 6 7 -5 25 20 8 15 9 18 -12 12 -14 14 -16 16 -18 -19 19 -21 -22 -23 -24 24 -26 -27 -28 29 -30 -31
leaf_value=-0.01154301432906161 0.12460977612060557 0.088250645223671945 0.027160493691453177 2.9593695540861651 0.20476445569802279 0.00078904131323585282 0.28893606174218911 0.10463294592520178 1.0409618434464489 -0.094643971036587449 0.68386189029158462 1.7162785136181375 4.672670657157898 0.62675432551990851 3.0803274440765382 1.8449630761941274 -0.51712753844261161 1.9433913604418436 0.48035869502462447 0.0027066611409187319 0.019782327524152786 0.46739133765552238 0.046609598276410834 2.2589339367025776 0.10338003004523548 0.30559430169218615 0.058447726706793275 0.981256895436316 1.7302854648071986 0.025710931376499286
leaf_weight=3201094 46295 481 194278 33 10919 650634 230 48489 405 112 239 69 20 33 21 45 20 108 64 100 260855 5089 27091 38 74 10438 74244 196 130 102
leaf_count=3201094 46295 481 194278 33 10919 650634 230 48489 405 112 239 69 20 33 21 45 20 108 64 100 260855 5089 27091 38 74 10438 74244 196 130 102
internal_value=3.39651e-05 0.204871 -0.00342213 0.167936 0.166577 -0.00760509 0.543306 0.0465617 0.852704 0.936631 1.19714 1.40092 2.38064 0.445657 1.58092 0.0847238 1.11817 1.23095 0.625425 0.761655 0.00622465 0.43465 0.083835 0.126324 0.834729 0.254044 0.0358111 0.915912 1.31794 0.654191
internal_weight=4.53195e+06 75196 4.45675e+06 67797 67764 4.11258e+06 7399 344167 1775 1545 841 602 89 5624 54 75645 65 513 704 592 911489 5570 75580 46407 112 21357 268522 492 194 298
internal_count=4531946 75196 4456750 67797 67764 4112583 7399 344167 1775 1545 841 602 89 5624 54 75645 65 513 704 592 911489 5570 75580 46407 112 21357 268522 492 194 298
is_linear=0
shrinkage=0.06


Tree=28
num_leaves=31
num_cat=0
split_feature=16 16 13 9 0 9 16 10 2 23 23 23 13 23 23 13 11 23 2 23 0 2 3 23 23 10 2 0 14 1
split_gain=779841 239843 214481 87990.5 44248.7 37730.9 37046.3 34852.4 30421.3 50755.2 24072.1 31033 23656.3 72940.8 21531 19636.4 18802.6 18968.6 18704.3 18552 19689 19108.9 18394.1 18384.8 16521.3 25650.2 28818.1 18479.5 16452.7 15575.3
threshold=9.2767858505249041 24.375000000000004 2.6428570747375493 48.500000000000007 4.5000000000000009 7.5000000000000009 1.1792857050895693 92.500000000000014 8.5000000000000018 0.39872792363166815 1.7006691694259646 0.87372702360153209 0.21428572386503222 0.48177790641784674 0.26494956016540533 27.214285850524906 106.00000000000001 0.4463536143302918 1.5000000000000002 0.34060508012771612 4.5000000000000009 3.5000000000000004 2014.5000000000002 1.1578551530838015 0.51492139697074901 4.5000000000000009 11.500000000000002 4.5000000000000009 49.607143402099616 11.500000000000002
decision_type=2 2 2 2 2 2 2 2 2 2 2 2 2 2 2 2 2 2 2 2 2 2 2 2 2 2 2 2 2 2
left_child=2 4 6 8 29 -4 -1 16 10 -10 11 12 13 -3 -6 -7 18 -18 -5 -14 21 -21 -17 -11 25 -20 -27 -26 -23 -2
right_child=1 3 5 7 14 15 -8 -9 9 23 -12 -13 19 -15 -16 22 17 -19 24 20 -22 28 -24 -25 27 26 -28 -29 -30 -31
leaf_value=-0.010715413500242563 0.14338191156974225 -0.38657822593053176 0.027163855570683605 -0.025652510702918845 0.078392679665942655 0.069880505134817292 0.004541780392347549 1.100198016143247 -0.20370363839215644 0.34353338900230723 0.94996388874374904 -0.0049834748663289364 -0.023666395963294302 1.7509726490164703 0.22865224083778943 1.1248314083999946 2.8356820158660412 0.9279828179454388 1.8644440738965824 0.17321691622443075 0.62313802015060893 0.3950369896456688 -0.22790542697963803 -0.19306563221363432 0.47370922316732278 0.41827115137522075 -0.9086168609346662 0.87387051917931091 0.90330154269039631 0.077640927114967645
leaf_weight=3295726 20223 90 360616 193 4222 87043 693479 534 958 2729 260 742 381 159 18372 119 24 86 41 1468 1214 2766 52 251 733 911 63 959 250 36193
leaf_count=3295726 20223 90 360616 193 4222 87043 693479 534 958 2729 260 742 381 159 18372 119 24 86 41 1468 1214 2766 52 251 733 911 63 959 250 36193
internal_value=-2.3544e-05 0.171158 -0.00364322 0.392721 0.129622 0.0357286 -0.00806312 0.65348 0.310708 0.176205 0.382968 0.362117 0.405162 0.978364 0.200574 0.0711424 0.574228 1.34421 0.545022 0.381683 0.408787 0.350754 0.713473 0.298337 0.585709 0.394329 0.332446 0.700515 0.437168 0.101207
internal_weight=4.53086e+06 93822 4.43704e+06 14812 79010 447830 3.9892e+06 3544 11268 3938 7330 7070 6328 249 22594 87214 3010 110 2900 6079 5698 4484 171 2980 2707 1015 974 1692 3016 56416
internal_count=4530857 93822 4437035 14812 79010 447830 3989205 3544 11268 3938 7330 7070 6328 249 22594 87214 3010 110 2900 6079 5698 4484 171 2980 2707 1015 974 1692 3016 56416
is_linear=0
shrinkage=0.06


Tree=29
num_leaves=31
num_cat=0
split_feature=16 13 9 12 16 12 9 21 29 21 2 8 1 9 9 9 11 11 29 8 8 29 5 5 24 29 11 13 11 5
split_gain=703019 239062 179541 59692.2 54598.2 48853.2 35461.9 22083.1 32292.6 63780.7 30065.1 21415.1 19470.2 18912.2 17113.8 16612 16147.4 16031.1 37886.5 19402.5 20132.7 16777.9 15159.7 14206.9 14038.4 13948 14959.5 13855.6 12719 12618.8
threshold=11.866071224212648 3.6428570747375493 46.500000000000007 23.500000000000004 1.5363756418228152 68.500000000000014 10.500000000000002 1.3000000119209292 872.50000000000011 1.1999999880790713 10.500000000000002 43.500000000000007 10.500000000000002 86.000000000000014 1.0000000180025095e-35 110.00000000000001 34.500000000000007 1.0000000180025095e-35 797.50000000000011 11.500000000000002 36.500000000000007 724.50000000000011 1.0000000180025095e-35 1.0000000180025095e-35 1.1126003265380862 846.50000000000011 113.50000000000001 22.071428298950199 55.500000000000007 1.0000000180025095e-35
decision_type=2 2 2 2 2 2 2 2 2 2 2 2 2 2 2 2 2 2 2 2 2 2 2 2 2 2 2 2 2 2
left_child=1 4 3 29 14 17 23 8 9 -7 -11 -9 -5 27 -1 -12 -14 18 -4 21 28 -19 -6 -3 -22 26 -13 -8 -21 -2
right_child=2 6 5 12 22 7 13 11 -10 10 15 25 16 -15 -16 -17 -18 19 -20 20 24 -23 -24 -25 -26 -27 -28 -29 -30 -31
leaf_value=-0.011655233108133786 0.11637082238751413 0.03088171591424824 1.9028022424755402 0.35962712586471818 0.0043283383212383425 4.2024486862529402 0.08920910001868107 0.90375676346084444 0.39037346059639405 0.71475270269073055 3.7560772568838936 -1.0547775526739218 0.17636303437087189 1.9383818217515945 -0.0019699083740403012 1.6533309141585701 0.34182058390254999 -0.69423531642981939 0.064170531975595566 0.50511980640583354 0.32079262843129996 0.23955484048805281 0.025657785732134026 0.063301029216447632 -0.77527028430591927 0.75272802589369603 0.73690691957473753 0.35002615765818662 0.85270669078110972 0.19871803490796558
leaf_weight=2708444 31347 190957 86 5703 418571 33 50766 638 84 107 21 51 7672 20 867031 38 2936 84 76 1288 958 395 168150 65304 44 61 25 744 537 8520
leaf_count=2708444 31347 190957 86 5703 418571 33 50766 638 84 107 21 51 7672 20 867031 38 2936 84 76 1288 958 395 168150 65304 44 61 25 744 537 8520
internal_value=4.70144e-06 -0.00274958 0.202818 0.17353 -0.00652287 0.566356 0.0482758 0.923249 1.37687 1.79328 1.31435 0.757603 0.270222 0.0936925 -0.0093066 2.40177 0.222157 0.457477 1.04023 0.428921 0.488753 0.0758004 0.0104412 0.0391433 0.272662 0.0769739 -0.465408 0.0929763 0.607396 0.133969
internal_weight=4.53069e+06 4.46999e+06 60704 56178 4.1622e+06 4526 307791 1058 283 199 166 775 16311 51530 3.57548e+06 59 10608 3468 162 3306 2827 479 586721 256261 1002 137 76 51510 1825 39867
internal_count=4530691 4469987 60704 56178 4162196 4526 307791 1058 283 199 166 775 16311 51530 3575475 59 10608 3468 162 3306 2827 479 586721 256261 1002 137 76 51510 1825 39867
is_linear=0
shrinkage=0.06


Tree=30
num_leaves=31
num_cat=0
split_feature=16 16 20 0 13 12 21 21 9 13 9 10 13 21 13 0 3 28 13 0 21 12 3 15 3 28 0 15 3 21
split_gain=613696 236400 112134 70751.2 62339.6 48904.6 34222.9 33531.5 31848 27395.2 21595.8 21469.1 20610.9 20253.8 19820.5 19767.4 19436.4 36234.8 52437 17718.2 16747.3 34406.4 14910.9 14828.4 13958.6 32488.6 13885.2 13176.4 18531.7 12720
threshold=6.8482143878936776 24.375000000000004 1.7678128480911257 4.5000000000000009 72.357143402099624 16.500000000000004 1.4750000238418581 1.8750000000000002 4.5000000000000009 58.642858505249031 66.500000000000014 14.500000000000002 0.5000000149011613 1.1999999880790713 42.500000000000007 3.5000000000000004 2013.5000000000002 24.500000000000004 72.357143402099624 4.5000000000000009 1.5299999713897707 10.500000000000002 2011.5000000000002 35.607143402099616 2013.5000000000002 24.500000000000004 4.5000000000000009 9.3035712242126483 2013.5000000000002 4.9749999046325692
decision_type=2 2 2 2 2 2 2 2 2 2 2 2 2 2 2 2 2 2 2 2 2 2 2 2 2 2 2 2 2 2
left_child=2 5 12 14 6 9 22 11 -4 15 -10 -8 -1 -6 27 -2 23 18 20 -7 21 -18 -5 -16 -15 -26 -14 28 -3 -9
right_child=1 3 8 4 13 19 7 29 10 -11 -12 -13 26 24 16 -17 17 -19 -20 -21 -22 -23 -24 -25 25 -27 -28 -29 -30 -31
leaf_value=-0.011572429649116853 0.054244303265532923 -0.37861161729563836 0.010755386298384439 -0.25363199752503335 3.1285927391052244 0.12049858740148994 2.1912786426544186 0.29038531667915946 0.040539018084669261 1.858293220650765 1.964752116033009 0.78114825089473783 -0.0061202499130214002 1.565011403859397 -0.14999517954759678 0.10622763604385024 0.97625804901123048 0.49799963540525749 -1.6043831564829898 0.21374484207104497 0.33219433240069735 -0.98553718354388153 0.33086854202959037 0.54344632678127291 -1.3230065449801358 1.6360935324079851 0.0075804433082373819 0.20036669692700138 1.6927373474836349 0.79606473067766947
leaf_weight=2398528 67910 23 503556 181 24 16684 40 944 170194 31 21 1374 930512 171 118 43015 45 654 78 13093 310 113 1191 1875 22 34 373063 7241 48 221
leaf_count=2398528 67910 23 503556 181 24 16684 40 944 170194 31 21 1374 930512 171 118 43015 45 654 78 13093 310 113 1191 1875 22 34 373063 7241 48 221
internal_value=-1.28578e-05 0.117144 -0.0041745 0.346035 0.554113 0.0932239 0.495864 0.624662 0.0183396 0.074901 0.0407764 0.821039 -0.008272 1.47101 0.262804 0.0744026 0.387522 0.196747 -0.164095 0.161499 0.0759533 -0.426798 0.253759 0.50239 1.29576 0.47359 -0.00219932 0.208342 1.02174 0.386312
internal_weight=4.53131e+06 155440 4.37587e+06 14707 4202 140733 3951 2579 673771 110956 170215 1414 3.7021e+06 251 10505 110925 3193 1200 546 29777 468 158 1372 1993 227 56 1.30358e+06 7312 71 1165
internal_count=4531314 155440 4375874 14707 4202 140733 3951 2579 673771 110956 170215 1414 3702103 251 10505 110925 3193 1200 546 29777 468 158 1372 1993 227 56 1303575 7312 71 1165
is_linear=0
shrinkage=0.06


Tree=31
num_leaves=31
num_cat=1
split_feature=9 16 10 9 29 9 11 21 14 28 3 3 12 8 21 29 0 21 0 29 29 29 8 14 30 11 9 24 8 14
split_gain=558571 171499 161800 53464.6 45475.5 41453 40986.5 37032.8 73347.6 40302.8 35781.9 30742 29831.8 29769.3 24771 24446.8 23318 22518.8 22359.5 23903.3 20906.7 20861 20011.7 24486.5 16028.1 22304.7 25532.3 15159.2 14861 23508.9
threshold=12.500000000000002 3.5446429252624516 37.500000000000007 124.50000000000001 872.50000000000011 1.5000000000000002 16.500000000000004 1.3000000119209292 49.607143402099616 29.500000000000004 2012.5000000000002 2011.5000000000002 101.50000000000001 42.500000000000007 4.9749999046325692 724.50000000000011 3.5000000000000004 1.4750000238418581 3.5000000000000004 698.50000000000011 1147.5000000000002 1246.5000000000002 48.500000000000007 49.607143402099616 0 1.0000000180025095e-35 41.500000000000007 0.22275791317224505 34.500000000000007 49.607143402099616
decision_type=2 2 2 2 2 2 2 2 2 2 2 2 2 2 2 2 2 2 2 2 2 2 2 2 1 2 2 2 2 2
left_child=1 5 3 6 7 -1 24 8 -4 -10 11 -11 16 18 17 -14 -3 -15 -9 -20 -6 -22 -19 -24 25 26 -2 -8 29 -23
right_child=2 12 4 -5 20 -7 27 13 9 10 -12 -13 15 14 -16 -17 -18 22 19 -21 21 28 23 -25 -26 -27 -28 -29 -30 -31
leaf_value=-0.0086084157859762818 0.21758470719506307 0.026937381249079278 0.242326742167153 2.4446329478422801 0.082743211660539204 0.0076012086011939617 0.091929667239304652 0.37825044851450063 0.94383468053689812 3.9538614354814801 4.0590509206553307 1.4070539654381982 2.1974579346179959 -1.4260695341560574 -1.1229603932159287 0.082263354642971145 0.061029147649897468 0.7643472864187788 0.18172900970340991 0.90896062612681339 0.52953876247057519 0.27828524798787746 0.37213168457150458 -1.4131174906288704 0.044762947059254973 0.10273970415547286 0.87548595086733494 0.21938547408208398 -0.00037321619365003801 1.2396910882896126
leaf_weight=3475426 3780 178921 205 36 1102 678899 4083 838 123 21 36 91 42 27 56 37 121119 192 196 958 1734 980 85 41 13926 26803 225 18955 620 101
leaf_count=3475426 3780 178921 205 36 1102 678899 4083 838 123 21 36 91 42 27 56 37 121119 192 196 958 1734 980 85 41 13926 26803 225 18955 620 101
internal_value=-5.72573e-05 -0.00279511 0.162088 0.133005 0.428369 -0.00595944 0.131777 0.615337 1.09867 1.74646 2.41351 1.88458 0.0410064 0.519196 0.0475272 1.2068 0.0406994 0.237519 0.614145 0.785445 0.310139 0.383091 0.378767 -0.208783 0.0982922 0.122435 0.254545 0.196797 0.233802 0.368111
internal_weight=4.52966e+06 4.45444e+06 75214 67808 7406 4.15432e+06 67772 2869 476 271 148 112 300119 2393 401 79 300040 345 1992 1154 4537 3435 318 126 44734 30808 4005 23038 1701 1081
internal_count=4529658 4454444 75214 67808 7406 4154325 67772 2869 476 271 148 112 300119 2393 401 79 300040 345 1992 1154 4537 3435 318 126 44734 30808 4005 23038 1701 1081
cat_boundaries=0 1
cat_threshold=6
is_linear=0
shrinkage=0.06


Tree=32
num_leaves=31
num_cat=0
split_feature=13 16 9 13 24 0 0 24 9 9 11 15 13 8 8 21 10 21 16 0 8 8 8 24 0 8 15 16 28 13
split_gain=508845 192061 118873 46713.5 33731.9 30381.3 30033.3 29789 27121.5 26108.5 20155.8 19898.4 21404.8 20356.8 28464.7 27763.5 21184.5 26337.1 19852.5 15009.5 14806.1 20525.7 24973.2 16874.5 14639 14609.3 28085.6 14043.8 14025.5 14751.3
threshold=14.500000000000002 4.169642686843873 43.500000000000007 1.6428571343421938 0.22431307286024096 3.5000000000000004 3.5000000000000004 0.22275791317224505 183.50000000000003 24.500000000000004 121.50000000000001 9.8035712242126483 46.571428298950202 36.500000000000007 31.500000000000004 2.6750000715255742 79.500000000000014 1.3000000119209292 8.4375000000000018 1.0000000180025095e-35 9.5000000000000018 19.500000000000004 23.500000000000004 0.32975253462791448 3.5000000000000004 35.500000000000007 35.607143402099616 0.58951467275619518 19.500000000000004 72.357143402099624
decision_type=2 2 2 2 2 2 2 2 2 2 2 2 2 2 2 2 2 2 2 2 2 2 2 2 2 2 2 2 2 2
left_child=1 3 7 27 -4 28 19 -2 11 -9 -10 -7 -13 14 20 -15 -16 -18 -8 -3 -14 -22 23 -23 -5 26 -20 -1 -6 -30
right_child=2 6 4 24 5 8 18 9 10 -11 -12 12 13 15 16 -17 17 -19 25 -21 21 22 -24 -25 -26 -27 -28 -29 29 -31
leaf_value=-0.010230463982579457 0.057820254964227442 0.063502310285194097 0.10224901964041319 0.0020715063544401438 0.12069244387073633 1.9714857786580136 0.056964771758176755 0.14874419154266796 3.3811976171623574 0.26116408807887675 0.91360558693225569 0.45358432829643375 0.22164816082304192 0.63447558801747472 1.1360915059774694 -0.77136494503182873 3.9247459151194644 1.4949007137997874 0.14386328435342613 0.019337311715373288 1.4266185703141347 -1.1132609481811522 0.99477944493149095 0.46248208817981534 0.020685802921351609 0.056086485826693941 1.8214009968439737 -0.0020839177294256065 0.31599125903844832 0.84914382803476918
leaf_weight=2509626 8081 36922 825 354289 757 38 83298 22341 22 11148 26 1740 148 354 142 59 26 42 18147 110934 175 40 206 63 266509 9728 36 1093834 645 263
leaf_count=2509626 8081 36922 825 354289 757 38 83298 22341 22 11148 26 1740 148 354 142 59 26 42 18147 110934 175 40 206 63 266509 9728 36 1093834 645 263
internal_value=-1.39685e-06 -0.00206332 0.196097 -0.00513871 0.456362 0.517918 0.0480834 0.161217 0.629514 0.186167 2.04459 0.60712 0.589809 0.778678 0.947918 0.433641 1.55312 2.42396 0.0716392 0.030366 0.746824 0.907415 0.613367 -0.149457 0.0100626 0.115434 0.147185 -0.00775757 0.311413 0.470418
internal_weight=4.53046e+06 4.48332e+06 47141 4.22426e+06 5571 4746 259065 41570 3081 33489 48 3033 2995 1255 842 413 210 68 111209 147856 632 484 309 103 620798 27911 18183 3.60346e+06 1665 908
internal_count=4530464 4483323 47141 4224258 5571 4746 259065 41570 3081 33489 48 3033 2995 1255 842 413 210 68 111209 147856 632 484 309 103 620798 27911 18183 3603460 1665 908
is_linear=0
shrinkage=0.06


Tree=33
num_leaves=31
num_cat=0
split_feature=16 13 11 16 23 1 5 29 21 17 21 23 2 13 2 1 1 2 1 17 29 1 16 5 13 2 11 2 13 20
split_gain=446912 148611 114027 35931.3 35659.6 26832.9 22312.6 22046 44600.5 59832.8 21715.3 19227.1 43299.5 25170.4 22595.1 22241.5 59880 21815 19146.2 17086.2 14952.3 14922.8 14290.4 13996.8 20706.4 13707.9 13626.9 29469.5 14213.4 13156.2
threshold=11.866071224212648 3.6428570747375493 37.500000000000007 1.6807491183280947 0.34887267649173742 11.500000000000002 1.0000000180025095e-35 872.50000000000011 1.0299999713897707 19.053764343261722 2.8750000000000004 0.48177790641784674 10.500000000000002 1.0000000180025095e-35 10.500000000000002 24.500000000000004 18.500000000000004 3.5000000000000004 13.500000000000002 19.053764343261722 797.50000000000011 11.500000000000002 24.375000000000004 1.0000000180025095e-35 53.428571701049812 8.5000000000000018 1.0000000180025095e-35 4.5000000000000009 58.642858505249031 1.0000000180025095e-35
decision_type=2 2 2 2 2 2 2 2 2 2 2 2 2 2 2 2 2 2 2 2 2 2 2 2 2 2 2 2 2 2
left_child=1 3 5 29 -4 22 21 8 9 -6 19 14 13 -13 -10 16 -16 -15 -19 -9 -14 -3 -2 -7 -25 26 27 28 -24 -1
right_child=2 6 4 -5 7 23 -8 10 11 -11 -12 12 20 17 15 -17 -18 18 -20 -21 -22 -23 25 24 -26 -27 -28 -29 -30 -31
leaf_value=-0.012671818546137468 0.16319246353399972 0.047476795289128675 0.036266040158588649 0.0098621611168721139 0.11407198643684387 0.074927767427447708 0.063530999873863736 0.42664557091165567 0.61825086515396832 3.7421854674816131 -0.2450662577195605 1.9199519091844557 -0.41718422146117096 0.16789764785866157 1.1854678692600944 -0.0013617358888898575 5.0192425650358201 0.89234973396852069 0.46756957642799474 0.095142043283806446 0.42540386126258156 0.015349292273759689 0.34952536304958726 0.15762748425265738 1.6634511971473693 0.13432140559873948 0.34805319252580841 3.0177612904139925 2.0095890781012447 -0.0048535864697278495
leaf_weight=1114245 16029 84995 977 503410 30 25022 88257 3101 216 36 221 48 244 464 55 21 20 631 968 683 110 134267 119 8647 33 1147 1941 21 22 2543801
leaf_count=1114245 16029 84995 977 503410 30 25022 88257 3101 216 36 221 48 244 464 55 21 20 631 968 683 110 134267 119 8647 33 1147 1941 21 22 2543801
